0.00977436 0.0101483 0.0105129 0.0108668 0.0112089 0.011538 0.0118531 0.0121528 0.0124363 0.0127025 0.0129502 0.0131787 0.013387 0.0135743 0.01374 0.01387 0.013912 0.0139283 0.0139185 0.0138823 0.0138195 0.0137301 0.0136143 0.0134721 0.0133039 0.0131102 0.0128913 0.012648 0.012381 0.0120909 0.0117789 0.0114458 0.0110929 0.0107213 0.0103323 0.00992703 0.00950697 0.00907347 0.00862798 0.00817194 0.00770682 0.00723412 0.00675533 0.00627192 0.00578536 0.00529711 0.00480859 0.00432118 0.0038362 0.00335497 0.00287873 0.00240865 0.00194585 0.0014914 0.00104625 0.000611326 0.000233471 -0.000125284 -0.000469972 -0.000800024 -0.00111496 -0.00141436 -0.00169793 -0.00196542 -0.00221666 -0.0024516 -0.00267022 -0.00287261 -0.00278821 -0.00267638 -0.00255823 -0.00243409 -0.00230432 -0.00216928 -0.00202939 -0.00188508 -0.00173678 -0.00158496 -0.0014301 -0.00127268 -0.00111322 -0.000952213 -0.000790172 -0.00062761 -0.000465036 -0.00030296 -0.000141875 1.77291e-05 0.000175373 0.000330604 0.000482969 0.000632049 0.000777438 0.000918763 0.00105566 0.00118779 0.00131487 0.00143663 0.00155282 0.00166323 0.00176768 0.00186601 0.00195812 0.00204389 0.00212329 0.00219626 0.00226281 0.00232296 0.00237401 0.00234595 0.00231413 0.00227868 0.00223974 0.00219745 0.00215198 0.00210349 0.00205218 0.00199821 0.00194179 0.00188312 0.00182238 0.00175979 0.00169555 0.00162987 0.00156295 0.00149498 0.00142617 0.00135671 0.00128678 0.00121657 0.00114626 0.00107601 0.00100598 0.000936318 0.000867179 0.00079867 0.00073092 0.000664062 0.000598197 0.000533425 0.000469833 0.000407497 0.000346487 0.000286864 0.000228682 0.000171982 0.0001168 6.31669e-05 1.11031e-05 -1.31911e-06 -1.35262e-06 -1.38534e-06 -1.41722e-06 -1.44823e-06 -1.47831e-06 -1.5074e-06 -1.53544e-06 -1.56239e-06 -1.58817e-06 -1.61273e-06 -1.636e-06 -1.65792e-06 -1.6784e-06 -1.69739e-06 -1.71482e-06 -1.73061e-06 -1.7447e-06 -1.75701e-06 -1.76748e-06 -1.77604e-06 -1.78263e-06 -1.78719e-06 -1.78966e-06 -1.78999e-06 -1.78814e-06 -1.73491e-06 -1.60874e-06 -1.47668e-06 -1.33879e-06 -1.1951e-06 -1.04571e-06 -8.90726e-07 -7.30277e-07 -5.6453e-07 -3.93677e-07 -2.17941e-07 -3.75626e-08 1.40011e-07 3.12946e-07 4.90094e-07 6.71089e-07 8.55542e-07 1.04301e-06 1.23305e-06 1.42518e-06 1.61889e-06 1.81366e-06 2.00895e-06 2.20419e-06 2.39881e-06 2.59222e-06 2.78383e-06 2.97303e-06 3.15923e-06 3.34183e-06 3.52023e-06 3.69384e-06 3.8621e-06 4.02444e-06 4.18031e-06 4.32921e-06 4.47064e-06 4.60413e-06 4.72924e-06 4.84558e-06 4.93732e-06 4.81163e-06 4.66941e-06 4.51049e-06 4.3348e-06 4.14233e-06 3.93314e-06 3.7074e-06 3.46533e-06 3.20724e-06 2.93354e-06 2.6447e-06 2.34129e-06 2.00929e-06 1.64627e-06 1.2719e-06 8.8703e-07 4.92611e-07 8.96439e-08 -3.20795e-07 -7.37602e-07 -1.15959e-06 -1.58556e-06 -2.01425e-06 -2.44439e-06 -2.87464e-06 -3.30369e-06 -3.73021e-06 -4.15283e-06 -4.5702e-06 -4.98101e-06 -5.38394e-06 -5.77769e-06 -6.161e-06 -6.53267e-06 -6.89152e-06 -7.23643e-06 -7.56635e-06 -7.88029e-06 1.26488e-05 0.00031311 0.000622724 0.000941369 0.00126888 0.00160506 0.00194965 0.00230235 0.00266283 0.00303068 0.00340547 0.00378669 0.00417375 0.0045661 0.00496307 0.005364 0.00576803 0.00617434 0.00658205 0.00699023 0.00739792 0.00780409 0.0082077 0.00860767 0.00900287 0.00939215 
0.0097784 0.0101525 0.0105172 0.0108713 0.0112135 0.0115428 0.011858 0.0121579 0.0124415 0.0127077 0.0129556 0.0131841 0.0133925 0.0135799 0.0137456 0.0138757 0.0139178 0.0139341 0.0139242 0.013888 0.0138252 0.0137358 0.0136199 0.0134777 0.0133094 0.0131156 0.0128967 0.0126533 0.0123862 0.0120959 0.0117837 0.0114505 0.0110975 0.0107257 0.0103365 0.00993112 0.00951089 0.00907721 0.00863153 0.0081753 0.00770999 0.00723709 0.0067581 0.00627449 0.00578774 0.00529928 0.00481056 0.00432294 0.00383776 0.00335634 0.0028799 0.00240962 0.00194664 0.001492 0.00104666 0.000611558 0.000233546 -0.000125356 -0.000470186 -0.000800374 -0.00111544 -0.00141497 -0.00169865 -0.00196625 -0.0022176 -0.00245263 -0.00267134 -0.00287381 -0.00278938 -0.0026775 -0.0025593 -0.00243511 -0.00230528 -0.00217019 -0.00203024 -0.00188586 -0.0017375 -0.00158562 -0.00143069 -0.00127321 -0.00111368 -0.000952607 -0.000790498 -0.000627868 -0.000465226 -0.000303081 -0.000141929 1.7742e-05 0.000175452 0.000330748 0.000483177 0.00063232 0.00077777 0.000919155 0.0010561 0.00118829 0.00131543 0.00143723 0.00155347 0.00166393 0.00176843 0.0018668 0.00195895 0.00204476 0.00212418 0.00219719 0.00226377 0.00232394 0.00237501 0.00234694 0.00231511 0.00227964 0.00224068 0.00219838 0.00215289 0.00210438 0.00205304 0.00199905 0.00194261 0.00188391 0.00182315 0.00176054 0.00169627 0.00163056 0.00156361 0.00149561 0.00142677 0.00135728 0.00128732 0.00121708 0.00114674 0.00107646 0.0010064 0.000936713 0.000867544 0.000799007 0.000731228 0.000664342 0.00059845 0.00053365 0.000470031 0.000407669 0.000346634 0.000286985 0.000228779 0.000172055 0.00011685 6.31935e-05 1.11078e-05 -1.31967e-06 -1.35319e-06 -1.38592e-06 -1.41782e-06 -1.44884e-06 -1.47893e-06 -1.50803e-06 -1.53609e-06 -1.56305e-06 -1.58884e-06 -1.61341e-06 -1.63669e-06 -1.65861e-06 -1.67911e-06 -1.69811e-06 -1.71554e-06 -1.73134e-06 -1.74543e-06 -1.75775e-06 -1.76822e-06 -1.77679e-06 -1.78338e-06 -1.78794e-06 -1.79041e-06 -1.79074e-06 -1.78889e-06 -1.73564e-06 -1.60941e-06 -1.4773e-06 -1.33935e-06 -1.1956e-06 -1.04615e-06 -8.91101e-07 -7.30584e-07 -5.64768e-07 -3.93844e-07 -2.18033e-07 -3.75793e-08 1.40068e-07 3.13077e-07 4.90299e-07 6.71369e-07 8.55899e-07 1.04345e-06 1.23357e-06 1.42577e-06 1.61957e-06 1.81442e-06 2.00979e-06 2.20511e-06 2.39981e-06 2.59331e-06 2.785e-06 2.97428e-06 3.16056e-06 3.34324e-06 3.52171e-06 3.69539e-06 3.86372e-06 4.02612e-06 4.18206e-06 4.33102e-06 4.47251e-06 4.60606e-06 4.73122e-06 4.84761e-06 4.93939e-06 4.81365e-06 4.67137e-06 4.51238e-06 4.33662e-06 4.14406e-06 3.93479e-06 3.70895e-06 3.46678e-06 3.20859e-06 2.93478e-06 2.64581e-06 2.34228e-06 2.01013e-06 1.64697e-06 1.27243e-06 8.87406e-07 4.92822e-07 8.96863e-08 -3.20924e-07 -7.37906e-07 -1.16007e-06 -1.58622e-06 -2.01509e-06 -2.44541e-06 -2.87584e-06 -3.30507e-06 -3.73176e-06 -4.15456e-06 -4.57211e-06 -4.98309e-06 -5.38619e-06 -5.7801e-06 -6.16357e-06 -6.5354e-06 -6.8944e-06 -7.23946e-06 -7.56951e-06 -7.88358e-06 1.2654e-05 0.00031324 0.000622981 0.000941758 0.00126941 0.00160572 0.00195045 0.00230331 0.00266393 0.00303194 0.00340688 0.00378825 0.00417548 0.00456799 0.00496513 0.00536621 0.00577041 0.00617689 0.00658477 0.00699312 0.00740098 0.00780731 0.0082111 0.00861122 0.00900659 0.00939603 
0.0097798 0.010154 0.0105187 0.0108728 0.0112151 0.0115444 0.0118596 0.0121596 0.0124432 0.0127095 0.0129574 0.013186 0.0133945 0.0135819 0.0137476 0.0138777 0.0139198 0.0139361 0.0139262 0.01389 0.0138272 0.0137378 0.0136218 0.0134796 0.0133113 0.0131175 0.0128985 0.0126551 0.0123879 0.0120977 0.0117854 0.0114522 0.0110991 0.0107273 0.010338 0.00993254 0.00951224 0.0090785 0.00863276 0.00817646 0.00771109 0.00723812 0.00675906 0.00627539 0.00578856 0.00530004 0.00481124 0.00432356 0.00383831 0.00335681 0.0028803 0.00240996 0.00194691 0.0014922 0.00104681 0.000611638 0.000233572 -0.000125381 -0.000470261 -0.000800495 -0.0011156 -0.00141518 -0.0016989 -0.00196653 -0.00221792 -0.00245299 -0.00267173 -0.00287423 -0.00278978 -0.00267789 -0.00255967 -0.00243546 -0.00230561 -0.0021705 -0.00203054 -0.00188614 -0.00173775 -0.00158585 -0.0014309 -0.0012734 -0.00111384 -0.000952744 -0.000790611 -0.000627958 -0.000465291 -0.000303124 -0.000141947 1.77465e-05 0.00017548 0.000330798 0.000483249 0.000632414 0.000777885 0.00091929 0.00105626 0.00118847 0.00131562 0.00143744 0.0015537 0.00166418 0.00176868 0.00186707 0.00195923 0.00204506 0.00212449 0.00219751 0.0022641 0.00232428 0.00237536 0.00234728 0.00231545 0.00227998 0.00224101 0.0021987 0.0021532 0.00210469 0.00205334 0.00199935 0.0019429 0.00188418 0.00182342 0.00176079 0.00169652 0.0016308 0.00156384 0.00149583 0.00142698 0.00135748 0.00128751 0.00121726 0.00114691 0.00107662 0.00100655 0.00093685 0.000867671 0.000799124 0.000731335 0.000664439 0.000598537 0.000533728 0.0004701 0.000407729 0.000346684 0.000287027 0.000228812 0.00017208 0.000116867 6.32028e-05 1.11094e-05 -1.31986e-06 -1.35338e-06 -1.38612e-06 -1.41803e-06 -1.44905e-06 -1.47915e-06 -1.50825e-06 -1.53631e-06 -1.56328e-06 -1.58907e-06 -1.61365e-06 -1.63693e-06 -1.65886e-06 -1.67935e-06 -1.69836e-06 -1.71579e-06 -1.73159e-06 -1.74569e-06 -1.758e-06 -1.76848e-06 -1.77704e-06 -1.78364e-06 -1.7882e-06 -1.79067e-06 -1.791e-06 -1.78915e-06 -1.7359e-06 -1.60965e-06 -1.47752e-06 -1.33954e-06 -1.19578e-06 -1.0463e-06 -8.9123e-07 -7.30691e-07 -5.64851e-07 -3.93901e-07 -2.18065e-07 -3.75851e-08 1.40089e-07 3.13122e-07 4.9037e-07 6.71466e-07 8.56023e-07 1.0436e-06 1.23375e-06 1.42598e-06 1.6198e-06 1.81468e-06 2.01008e-06 2.20543e-06 2.40016e-06 2.59368e-06 2.7854e-06 2.97471e-06 3.16102e-06 3.34372e-06 3.52222e-06 3.69593e-06 3.86428e-06 4.02671e-06 4.18267e-06 4.33165e-06 4.47316e-06 4.60672e-06 4.73191e-06 4.84832e-06 4.94011e-06 4.81435e-06 4.67205e-06 4.51304e-06 4.33725e-06 4.14466e-06 3.93536e-06 3.70949e-06 3.46728e-06 3.20906e-06 2.9352e-06 2.64619e-06 2.34262e-06 2.01043e-06 1.64721e-06 1.27262e-06 8.87536e-07 4.92895e-07 8.9701e-08 -3.20969e-07 -7.38011e-07 -1.16024e-06 -1.58645e-06 -2.01538e-06 -2.44576e-06 -2.87626e-06 -3.30555e-06 -3.7323e-06 -4.15516e-06 -4.57277e-06 -4.98381e-06 -5.38697e-06 -5.78094e-06 -6.16447e-06 -6.53635e-06 -6.8954e-06 -7.2405e-06 -7.57061e-06 -7.88472e-06 1.26558e-05 0.000313285 0.00062307 0.000941893 0.00126959 0.00160595 0.00195073 0.00230363 0.00266431 0.00303237 0.00340736 0.00378879 0.00417608 0.00456864 0.00496584 0.00536698 0.00577124 0.00617777 0.00658571 0.00699412 0.00740204 0.00780843 0.00821227 0.00861246 0.00900788 0.00939738 
0.00977858 0.0101527 0.0105174 0.0108714 0.0112137 0.011543 0.0118582 0.0121581 0.0124417 0.0127079 0.0129558 0.0131844 0.0133928 0.0135802 0.0137459 0.0138759 0.013918 0.0139343 0.0139245 0.0138882 0.0138254 0.013736 0.0136201 0.0134779 0.0133097 0.0131158 0.0128969 0.0126535 0.0123864 0.0120961 0.0117839 0.0114507 0.0110977 0.0107259 0.0103367 0.0099313 0.00951106 0.00907737 0.00863168 0.00817544 0.00771013 0.00723722 0.00675822 0.00627461 0.00578784 0.00529938 0.00481064 0.00432302 0.00383783 0.0033564 0.00287995 0.00240967 0.00194667 0.00149202 0.00104668 0.000611568 0.00023355 -0.000125359 -0.000470196 -0.000800389 -0.00111546 -0.00141499 -0.00169868 -0.00196628 -0.00221764 -0.00245267 -0.00267139 -0.00287387 -0.00278943 -0.00267755 -0.00255934 -0.00243516 -0.00230532 -0.00217023 -0.00203028 -0.0018859 -0.00173753 -0.00158565 -0.00143072 -0.00127324 -0.0011137 -0.000952624 -0.000790512 -0.000627879 -0.000465234 -0.000303087 -0.000141931 1.77426e-05 0.000175456 0.000330754 0.000483186 0.000632332 0.000777784 0.000919172 0.00105612 0.00118831 0.00131545 0.00143726 0.0015535 0.00166396 0.00176846 0.00186684 0.00195898 0.0020448 0.00212422 0.00219723 0.00226381 0.00232399 0.00237506 0.00234698 0.00231515 0.00227968 0.00224072 0.00219842 0.00215293 0.00210442 0.00205308 0.00199909 0.00194265 0.00188394 0.00182318 0.00176057 0.0016963 0.00163059 0.00156364 0.00149564 0.0014268 0.0013573 0.00128735 0.00121711 0.00114676 0.00107648 0.00100642 0.00093673 0.00086756 0.000799022 0.000731241 0.000664354 0.000598461 0.00053366 0.000470039 0.000407677 0.00034664 0.000286991 0.000228783 0.000172058 0.000116852 6.31947e-05 1.1108e-05 -1.31969e-06 -1.35321e-06 -1.38595e-06 -1.41785e-06 -1.44887e-06 -1.47896e-06 -1.50806e-06 -1.53612e-06 -1.56308e-06 -1.58887e-06 -1.61344e-06 -1.63672e-06 -1.65865e-06 -1.67914e-06 -1.69814e-06 -1.71557e-06 -1.73137e-06 -1.74546e-06 -1.75778e-06 -1.76825e-06 -1.77682e-06 -1.78341e-06 -1.78797e-06 -1.79044e-06 -1.79078e-06 -1.78893e-06 -1.73567e-06 -1.60944e-06 -1.47733e-06 -1.33937e-06 -1.19562e-06 -1.04617e-06 -8.91117e-07 -7.30598e-07 -5.64778e-07 -3.93851e-07 -2.18037e-07 -3.758e-08 1.40071e-07 3.13082e-07 4.90308e-07 6.71381e-07 8.55915e-07 1.04347e-06 1.23359e-06 1.4258e-06 1.6196e-06 1.81445e-06 2.00982e-06 2.20515e-06 2.39986e-06 2.59335e-06 2.78505e-06 2.97433e-06 3.16062e-06 3.3433e-06 3.52177e-06 3.69546e-06 3.86379e-06 4.0262e-06 4.18214e-06 4.3311e-06 4.47259e-06 4.60614e-06 4.73131e-06 4.8477e-06 4.93948e-06 4.81374e-06 4.67145e-06 4.51247e-06 4.33669e-06 4.14414e-06 3.93486e-06 3.70902e-06 3.46684e-06 3.20865e-06 2.93483e-06 2.64586e-06 2.34232e-06 2.01017e-06 1.647e-06 1.27246e-06 8.87422e-07 4.92831e-07 8.96881e-08 -3.2093e-07 -7.37919e-07 -1.16009e-06 -1.58625e-06 -2.01513e-06 -2.44545e-06 -2.87589e-06 -3.30513e-06 -3.73183e-06 -4.15463e-06 -4.57219e-06 -4.98318e-06 -5.38629e-06 -5.78021e-06 -6.16369e-06 -6.53552e-06 -6.89453e-06 -7.23959e-06 -7.56965e-06 -7.88372e-06 1.26542e-05 0.000313245 0.000622992 0.000941775 0.00126943 0.00160575 0.00195049 0.00230335 0.00266398 0.00303199 0.00340694 0.00378832 0.00417555 0.00456807 0.00496521 0.00536631 0.00577051 0.006177 0.00658488 0.00699324 0.00740111 0.00780745 0.00821124 0.00861138 0.00900675 0.0093962 
0.00977471 0.0101487 0.0105132 0.0108671 0.0112093 0.0115384 0.0118535 0.0121533 0.0124368 0.0127029 0.0129507 0.0131792 0.0133875 0.0135748 0.0137404 0.0138704 0.0139125 0.0139288 0.013919 0.0138828 0.01382 0.0137306 0.0136148 0.0134726 0.0133044 0.0131106 0.0128918 0.0126485 0.0123815 0.0120914 0.0117793 0.0114462 0.0110933 0.0107217 0.0103326 0.00992738 0.00950731 0.00907379 0.00862828 0.00817223 0.0077071 0.00723438 0.00675557 0.00627214 0.00578557 0.0052973 0.00480876 0.00432133 0.00383633 0.00335509 0.00287883 0.00240873 0.00194592 0.00149145 0.00104629 0.000611346 0.000233477 -0.00012529 -0.000469991 -0.000800054 -0.001115 -0.00141442 -0.00169799 -0.00196549 -0.00221674 -0.00245169 -0.00267032 -0.00287271 -0.00278831 -0.00267648 -0.00255832 -0.00243418 -0.0023044 -0.00216936 -0.00202947 -0.00188515 -0.00173684 -0.00158502 -0.00143015 -0.00127273 -0.00111326 -0.000952247 -0.0007902 -0.000627632 -0.000465052 -0.00030297 -0.000141879 1.77302e-05 0.00017538 0.000330616 0.000482987 0.000632073 0.000777467 0.000918797 0.00105569 0.00118783 0.00131492 0.00143668 0.00155287 0.00166329 0.00176774 0.00186608 0.00195819 0.00204397 0.00212336 0.00219634 0.00226289 0.00232305 0.0023741 0.00234604 0.00231422 0.00227876 0.00223982 0.00219753 0.00215206 0.00210357 0.00205225 0.00199828 0.00194186 0.00188318 0.00182245 0.00175986 0.00169562 0.00162993 0.00156301 0.00149503 0.00142622 0.00135676 0.00128683 0.00121662 0.0011463 0.00107605 0.00100601 0.000936352 0.00086721 0.000798699 0.000730946 0.000664086 0.000598219 0.000533444 0.00046985 0.000407512 0.0003465 0.000286875 0.000228691 0.000171988 0.000116805 6.31692e-05 1.11035e-05 -1.31916e-06 -1.35266e-06 -1.38539e-06 -1.41728e-06 -1.44828e-06 -1.47836e-06 -1.50745e-06 -1.5355e-06 -1.56244e-06 -1.58823e-06 -1.61279e-06 -1.63606e-06 -1.65798e-06 -1.67846e-06 -1.69746e-06 -1.71488e-06 -1.73068e-06 -1.74476e-06 -1.75707e-06 -1.76754e-06 -1.7761e-06 -1.78269e-06 -1.78725e-06 -1.78972e-06 -1.79006e-06 -1.78821e-06 -1.73498e-06 -1.60879e-06 -1.47674e-06 -1.33883e-06 -1.19514e-06 -1.04575e-06 -8.90758e-07 -7.30303e-07 -5.64551e-07 -3.93692e-07 -2.17949e-07 -3.75641e-08 1.40016e-07 3.12957e-07 4.90112e-07 6.71113e-07 8.55572e-07 1.04305e-06 1.2331e-06 1.42523e-06 1.61895e-06 1.81372e-06 2.00902e-06 2.20427e-06 2.3989e-06 2.59231e-06 2.78393e-06 2.97314e-06 3.15935e-06 3.34196e-06 3.52036e-06 3.69398e-06 3.86224e-06 4.02458e-06 4.18046e-06 4.32937e-06 4.4708e-06 4.60429e-06 4.72941e-06 4.84576e-06 4.9375e-06 4.81181e-06 4.66958e-06 4.51066e-06 4.33495e-06 4.14247e-06 3.93328e-06 3.70753e-06 3.46545e-06 3.20736e-06 2.93365e-06 2.64479e-06 2.34138e-06 2.00936e-06 1.64633e-06 1.27194e-06 8.87062e-07 4.92629e-07 8.96476e-08 -3.20806e-07 -7.37629e-07 -1.15963e-06 -1.58562e-06 -2.01432e-06 -2.44447e-06 -2.87475e-06 -3.30381e-06 -3.73034e-06 -4.15298e-06 -4.57036e-06 -4.98119e-06 -5.38413e-06 -5.7779e-06 -6.16122e-06 -6.53291e-06 -6.89177e-06 -7.23669e-06 -7.56662e-06 -7.88057e-06 1.26492e-05 0.000313122 0.000622746 0.000941403 0.00126893 0.00160511 0.00194972 0.00230244 0.00266293 0.00303079 0.00340559 0.00378682 0.0041739 0.00456626 0.00496325 0.00536419 0.00576823 0.00617456 0.00658228 0.00699047 0.00739818 0.00780437 0.00820799 0.00860797 0.00900319 0.00939249 
0.00976819 0.0101419 0.0105062 0.0108599 0.0112018 0.0115307 0.0118456 0.0121452 0.0124285 0.0126944 0.012942 0.0131704 0.0133786 0.0135658 0.0137313 0.0138612 0.0139033 0.0139196 0.0139097 0.0138735 0.0138108 0.0137215 0.0136057 0.0134636 0.0132955 0.0131019 0.0128832 0.0126401 0.0123732 0.0120833 0.0117714 0.0114386 0.0110859 0.0107146 0.0103257 0.00992078 0.00950099 0.00906776 0.00862255 0.0081668 0.00770198 0.00722958 0.00675109 0.00626798 0.00578174 0.00529379 0.00480558 0.00431848 0.0038338 0.00335288 0.00287694 0.00240716 0.00194465 0.00149049 0.00104562 0.000610972 0.000233355 -0.000125173 -0.000469645 -0.000799488 -0.00111422 -0.00141344 -0.00169683 -0.00196415 -0.00221524 -0.00245003 -0.00266851 -0.00287078 -0.00278643 -0.00267467 -0.00255659 -0.00243254 -0.00230285 -0.0021679 -0.0020281 -0.00188388 -0.00173567 -0.00158395 -0.00142919 -0.00127187 -0.00111251 -0.00095161 -0.000789673 -0.000627216 -0.000464746 -0.000302774 -0.000141792 1.77093e-05 0.000175252 0.000330383 0.000482651 0.000631635 0.000776931 0.000918166 0.00105497 0.00118702 0.00131402 0.0014357 0.00155181 0.00166215 0.00176654 0.00186481 0.00195685 0.00204258 0.00212192 0.00219484 0.00226135 0.00232147 0.00237248 0.00234444 0.00231264 0.00227721 0.00223829 0.00219603 0.00215059 0.00210214 0.00205085 0.00199692 0.00194054 0.0018819 0.00182121 0.00175866 0.00169446 0.00162882 0.00156194 0.00149402 0.00142525 0.00135583 0.00128595 0.00121579 0.00114552 0.00107531 0.00100533 0.000935715 0.00086662 0.000798156 0.000730449 0.000663634 0.000597812 0.000533081 0.00046953 0.000407235 0.000346264 0.00028668 0.000228535 0.000171871 0.000116725 6.31262e-05 1.10959e-05 -1.31826e-06 -1.35174e-06 -1.38444e-06 -1.41631e-06 -1.4473e-06 -1.47735e-06 -1.50642e-06 -1.53445e-06 -1.56138e-06 -1.58715e-06 -1.61169e-06 -1.63495e-06 -1.65685e-06 -1.67732e-06 -1.6963e-06 -1.71372e-06 -1.7295e-06 -1.74358e-06 -1.75588e-06 -1.76634e-06 -1.7749e-06 -1.78148e-06 -1.78604e-06 -1.78851e-06 -1.78884e-06 -1.78699e-06 -1.7338e-06 -1.6077e-06 -1.47573e-06 -1.33793e-06 -1.19433e-06 -1.04504e-06 -8.90153e-07 -7.29807e-07 -5.64167e-07 -3.93424e-07 -2.178e-07 -3.75372e-08 1.39922e-07 3.12747e-07 4.89782e-07 6.7066e-07 8.54995e-07 1.04234e-06 1.23226e-06 1.42427e-06 1.61785e-06 1.8125e-06 2.00766e-06 2.20278e-06 2.39727e-06 2.59056e-06 2.78205e-06 2.97113e-06 3.15721e-06 3.3397e-06 3.51798e-06 3.69148e-06 3.85963e-06 4.02186e-06 4.17764e-06 4.32644e-06 4.46777e-06 4.60118e-06 4.72621e-06 4.84248e-06 4.93416e-06 4.80855e-06 4.66642e-06 4.5076e-06 4.33202e-06 4.13967e-06 3.93062e-06 3.70502e-06 3.46311e-06 3.20519e-06 2.93166e-06 2.643e-06 2.33979e-06 2.008e-06 1.64521e-06 1.27107e-06 8.86456e-07 4.92289e-07 8.95792e-08 -3.20597e-07 -7.37138e-07 -1.15886e-06 -1.58455e-06 -2.01297e-06 -2.44283e-06 -2.87281e-06 -3.30159e-06 -3.72783e-06 -4.15018e-06 -4.56729e-06 -4.97783e-06 -5.38051e-06 -5.774e-06 -6.15707e-06 -6.52851e-06 -6.88712e-06 -7.23181e-06 -7.56152e-06 -7.87526e-06 1.26408e-05 0.000312913 0.000622331 0.000940775 0.00126808 0.00160404 0.00194842 0.0023009 0.00266115 0.00302877 0.00340332 0.0037843 0.00417112 0.00456322 0.00495994 0.00536061 0.00576439 0.00617044 0.00657789 0.00698581 0.00739325 0.00779916 0.00820252 0.00860223 0.00899719 0.00938622 
0.00975898 0.0101324 0.0104963 0.0108497 0.0111912 0.0115199 0.0118344 0.0121337 0.0124168 0.0126825 0.0129298 0.013158 0.0133659 0.013553 0.0137183 0.0138481 0.0138901 0.0139064 0.0138966 0.0138604 0.0137977 0.0137085 0.0135929 0.0134509 0.013283 0.0130896 0.0128711 0.0126282 0.0123616 0.0120719 0.0117603 0.0114278 0.0110755 0.0107045 0.010316 0.00991145 0.00949205 0.00905924 0.00861445 0.00815913 0.00769475 0.00722279 0.00674475 0.00626211 0.00577632 0.00528884 0.00480109 0.00431444 0.00383023 0.00334977 0.00287427 0.00240493 0.00194287 0.00148913 0.00104468 0.000610444 0.000233182 -0.000125009 -0.000469156 -0.000798689 -0.00111313 -0.00141207 -0.00169519 -0.00196225 -0.00221311 -0.00244768 -0.00266596 -0.00286803 -0.00278377 -0.00267212 -0.00255415 -0.00243022 -0.00230065 -0.00216583 -0.00202617 -0.00188208 -0.00173402 -0.00158244 -0.00142783 -0.00127067 -0.00111146 -0.00095071 -0.000788928 -0.000626627 -0.000464313 -0.000302496 -0.000141668 1.76799e-05 0.000175072 0.000330054 0.000482176 0.000631018 0.000776174 0.000917273 0.00105395 0.00118587 0.00131275 0.00143431 0.00155031 0.00166055 0.00176483 0.00186301 0.00195497 0.00204061 0.00211987 0.00219273 0.00225917 0.00231923 0.0023702 0.00234218 0.00231042 0.00227502 0.00223614 0.00219392 0.00214852 0.00210011 0.00204888 0.001995 0.00193867 0.00188009 0.00181945 0.00175697 0.00169283 0.00162726 0.00156044 0.00149258 0.00142388 0.00135453 0.00128471 0.00121462 0.00114442 0.00107428 0.00100436 0.000934814 0.000865786 0.000797388 0.000729746 0.000662995 0.000597236 0.000532568 0.000469078 0.000406843 0.000345931 0.000286404 0.000228315 0.000171706 0.000116613 6.30654e-05 1.10852e-05 -1.31699e-06 -1.35044e-06 -1.38311e-06 -1.41495e-06 -1.4459e-06 -1.47593e-06 -1.50497e-06 -1.53298e-06 -1.55988e-06 -1.58562e-06 -1.61014e-06 -1.63338e-06 -1.65526e-06 -1.67571e-06 -1.69467e-06 -1.71207e-06 -1.72784e-06 -1.7419e-06 -1.75419e-06 -1.76464e-06 -1.77319e-06 -1.77977e-06 -1.78432e-06 -1.78679e-06 -1.78713e-06 -1.78528e-06 -1.73214e-06 -1.60616e-06 -1.47432e-06 -1.33664e-06 -1.19319e-06 -1.04403e-06 -8.89298e-07 -7.29106e-07 -5.63624e-07 -3.93045e-07 -2.17589e-07 -3.74991e-08 1.39791e-07 3.1245e-07 4.89315e-07 6.70021e-07 8.54179e-07 1.04135e-06 1.23109e-06 1.4229e-06 1.61631e-06 1.81077e-06 2.00574e-06 2.20067e-06 2.39498e-06 2.58808e-06 2.77939e-06 2.96829e-06 3.15419e-06 3.3365e-06 3.51462e-06 3.68795e-06 3.85594e-06 4.01801e-06 4.17364e-06 4.3223e-06 4.4635e-06 4.59678e-06 4.72169e-06 4.83785e-06 4.92944e-06 4.80395e-06 4.66196e-06 4.50329e-06 4.32788e-06 4.13571e-06 3.92686e-06 3.70147e-06 3.45979e-06 3.20212e-06 2.92885e-06 2.64047e-06 2.33755e-06 2.00607e-06 1.64363e-06 1.26985e-06 8.85598e-07 4.91808e-07 8.94826e-08 -3.20302e-07 -7.36445e-07 -1.15776e-06 -1.58305e-06 -2.01106e-06 -2.44051e-06 -2.87008e-06 -3.29845e-06 -3.72428e-06 -4.14623e-06 -4.56293e-06 -4.97309e-06 -5.37538e-06 -5.7685e-06 -6.1512e-06 -6.52228e-06 -6.88056e-06 -7.22492e-06 -7.55431e-06 -7.86774e-06 1.2629e-05 0.000312618 0.000621744 0.000939888 0.00126688 0.00160253 0.00194658 0.00229873 0.00265864 0.00302591 0.00340011 0.00378073 0.00416718 0.00455891 0.00495526 0.00535555 0.00575895 0.00616462 0.00657169 0.00697922 0.00738628 0.00779181 0.00819479 0.00859412 0.0089887 0.00937737 
0.00974703 0.01012 0.0104835 0.0108364 0.0111775 0.0115058 0.0118199 0.0121189 0.0124016 0.0126669 0.012914 0.0131418 0.0133496 0.0135364 0.0137015 0.0138312 0.0138731 0.0138894 0.0138796 0.0138435 0.0137808 0.0136917 0.0135762 0.0134345 0.0132668 0.0130735 0.0128553 0.0126127 0.0123465 0.0120572 0.011746 0.0114139 0.011062 0.0106914 0.0103034 0.00989934 0.00948046 0.00904818 0.00860394 0.00814918 0.00768537 0.00721399 0.00673654 0.00625449 0.0057693 0.00528241 0.00479526 0.00430921 0.00382559 0.00334572 0.00287081 0.00240205 0.00194055 0.00148737 0.00104347 0.000609758 0.000232958 -0.000124795 -0.000468522 -0.000797653 -0.00111171 -0.00141028 -0.00169306 -0.0019598 -0.00221035 -0.00244463 -0.00266265 -0.00286448 -0.00278032 -0.00266881 -0.00255099 -0.00242721 -0.0022978 -0.00216315 -0.00202366 -0.00187975 -0.00173188 -0.00158049 -0.00142607 -0.0012691 -0.00111009 -0.000949543 -0.000787962 -0.000625863 -0.000463751 -0.000302135 -0.000141508 1.76418e-05 0.000174838 0.000329627 0.000481559 0.000630216 0.000775192 0.000916116 0.00105262 0.00118438 0.0013111 0.00143251 0.00154837 0.00165847 0.00176262 0.00186068 0.00195252 0.00203805 0.00211722 0.00218999 0.00225635 0.00231633 0.00236724 0.00233925 0.00230753 0.00227218 0.00223335 0.00219118 0.00214584 0.00209749 0.00204632 0.00199251 0.00193625 0.00187774 0.00181718 0.00175477 0.00169072 0.00162522 0.00155849 0.00149071 0.0014221 0.00135283 0.00128311 0.0012131 0.00114299 0.00107294 0.0010031 0.000933646 0.000864704 0.000796391 0.000728834 0.000662167 0.00059649 0.000531902 0.000468492 0.000406334 0.000345498 0.000286046 0.00022803 0.000171491 0.000116467 6.29866e-05 1.10714e-05 -1.31534e-06 -1.34875e-06 -1.38138e-06 -1.41318e-06 -1.4441e-06 -1.47408e-06 -1.50309e-06 -1.53106e-06 -1.55793e-06 -1.58364e-06 -1.60813e-06 -1.63134e-06 -1.65319e-06 -1.67362e-06 -1.69256e-06 -1.70994e-06 -1.72568e-06 -1.73973e-06 -1.752e-06 -1.76244e-06 -1.77098e-06 -1.77755e-06 -1.7821e-06 -1.78457e-06 -1.7849e-06 -1.78306e-06 -1.72998e-06 -1.60416e-06 -1.47248e-06 -1.33498e-06 -1.1917e-06 -1.04273e-06 -8.88189e-07 -7.28196e-07 -5.62921e-07 -3.92553e-07 -2.17316e-07 -3.74498e-08 1.39619e-07 3.12064e-07 4.8871e-07 6.69191e-07 8.53121e-07 1.04006e-06 1.22956e-06 1.42114e-06 1.6143e-06 1.80852e-06 2.00325e-06 2.19794e-06 2.39201e-06 2.58487e-06 2.77594e-06 2.96461e-06 3.15028e-06 3.33236e-06 3.51025e-06 3.68337e-06 3.85115e-06 4.01303e-06 4.16846e-06 4.31693e-06 4.45796e-06 4.59107e-06 4.71583e-06 4.83184e-06 4.92332e-06 4.79799e-06 4.65617e-06 4.4977e-06 4.3225e-06 4.13057e-06 3.92198e-06 3.69687e-06 3.45549e-06 3.19813e-06 2.92521e-06 2.63718e-06 2.33463e-06 2.00357e-06 1.64158e-06 1.26826e-06 8.84486e-07 4.91184e-07 8.93573e-08 -3.1992e-07 -7.35547e-07 -1.15634e-06 -1.5811e-06 -2.00858e-06 -2.4375e-06 -2.86654e-06 -3.29437e-06 -3.71968e-06 -4.1411e-06 -4.55729e-06 -4.96694e-06 -5.36873e-06 -5.76136e-06 -6.14359e-06 -6.51421e-06 -6.87204e-06 -7.21597e-06 -7.54495e-06 -7.858e-06 1.26137e-05 0.000312235 0.000620983 0.000938737 0.00126533 0.00160057 0.0019442 0.00229592 0.00265539 0.00302221 0.00339595 0.0037761 0.00416208 0.00455333 0.0049492 0.005349 0.0057519 0.00615707 0.00656364 0.00697068 0.00737723 0.00778226 0.00818475 0.0085836 0.00897769 0.00936589 
0.00973229 0.0101046 0.0104676 0.01082 0.0111606 0.0114884 0.011802 0.0121005 0.0123828 0.0126478 0.0128945 0.013122 0.0133294 0.0135159 0.0136808 0.0138103 0.0138522 0.0138684 0.0138586 0.0138225 0.01376 0.0136711 0.0135557 0.0134142 0.0132467 0.0130538 0.0128359 0.0125937 0.0123278 0.012039 0.0117282 0.0113966 0.0110453 0.0106753 0.0102879 0.00988441 0.00946617 0.00903454 0.00859097 0.0081369 0.0076738 0.00720313 0.00672641 0.00624509 0.00576063 0.00527449 0.00478807 0.00430276 0.00381988 0.00334073 0.00286654 0.00239848 0.00193768 0.00148519 0.00104196 0.000608912 0.000232681 -0.000124532 -0.00046774 -0.000796375 -0.00110996 -0.00140808 -0.00169043 -0.00195677 -0.00220694 -0.00244088 -0.00265856 -0.00286009 -0.00277606 -0.00266472 -0.00254709 -0.0024235 -0.00229429 -0.00215985 -0.00202057 -0.00187688 -0.00172923 -0.00157808 -0.0014239 -0.00126717 -0.0011084 -0.000948103 -0.000786771 -0.000624921 -0.000463058 -0.000301691 -0.000141311 1.75948e-05 0.000174549 0.000329101 0.0004808 0.000629228 0.000773981 0.000914688 0.00105098 0.00118254 0.00130906 0.00143029 0.00154597 0.0016559 0.00175989 0.0018578 0.0019495 0.0020349 0.00211395 0.0021866 0.00225287 0.00231276 0.00236358 0.00233564 0.00230397 0.00226867 0.0022299 0.0021878 0.00214252 0.00209425 0.00204316 0.00198943 0.00193326 0.00187484 0.00181438 0.00175206 0.00168811 0.00162271 0.00155608 0.00148841 0.0014199 0.00135075 0.00128113 0.00121123 0.00114122 0.00107128 0.00100156 0.000932205 0.000863369 0.000795162 0.000727709 0.000661145 0.000595569 0.000531081 0.000467769 0.000405707 0.000344965 0.000285604 0.000227678 0.000171227 0.000116287 6.28894e-05 1.10543e-05 -1.3133e-06 -1.34666e-06 -1.37924e-06 -1.41099e-06 -1.44186e-06 -1.47181e-06 -1.50077e-06 -1.5287e-06 -1.55553e-06 -1.5812e-06 -1.60565e-06 -1.62882e-06 -1.65064e-06 -1.67104e-06 -1.68995e-06 -1.7073e-06 -1.72302e-06 -1.73705e-06 -1.74931e-06 -1.75973e-06 -1.76826e-06 -1.77482e-06 -1.77936e-06 -1.78182e-06 -1.78215e-06 -1.78031e-06 -1.72732e-06 -1.60169e-06 -1.47022e-06 -1.33292e-06 -1.18987e-06 -1.04113e-06 -8.86822e-07 -7.27075e-07 -5.62053e-07 -3.91947e-07 -2.16979e-07 -3.73889e-08 1.39409e-07 3.11589e-07 4.87963e-07 6.68168e-07 8.51815e-07 1.03847e-06 1.22768e-06 1.41896e-06 1.61183e-06 1.80575e-06 2.00018e-06 2.19457e-06 2.38834e-06 2.58091e-06 2.77168e-06 2.96006e-06 3.14545e-06 3.32725e-06 3.50487e-06 3.67772e-06 3.84524e-06 4.00687e-06 4.16207e-06 4.31031e-06 4.45112e-06 4.58403e-06 4.70859e-06 4.82443e-06 4.91577e-06 4.79063e-06 4.64902e-06 4.4908e-06 4.31587e-06 4.12423e-06 3.91596e-06 3.6912e-06 3.45018e-06 3.19322e-06 2.92071e-06 2.63312e-06 2.33104e-06 2.00048e-06 1.63905e-06 1.2663e-06 8.83114e-07 4.90414e-07 8.92028e-08 -3.19447e-07 -7.34438e-07 -1.15459e-06 -1.5787e-06 -2.00552e-06 -2.43378e-06 -2.86217e-06 -3.28935e-06 -3.714e-06 -4.13477e-06 -4.55033e-06 -4.95935e-06 -5.36052e-06 -5.75256e-06 -6.13419e-06 -6.50425e-06 -6.86153e-06 -7.20494e-06 -7.53342e-06 -7.84598e-06 1.25947e-05 0.000311763 0.000620044 0.000937317 0.00126342 0.00159815 0.00194126 0.00229244 0.00265137 0.00301764 0.00339081 0.00377039 0.00415579 0.00454645 0.00494171 0.00534091 0.0057432 0.00614776 0.00655372 0.00696014 0.00736608 0.0077705 0.00817237 0.00857062 0.00896412 0.00935172 
0.00971466 0.0100863 0.0104486 0.0108004 0.0111404 0.0114676 0.0117807 0.0120786 0.0123604 0.0126249 0.0128711 0.0130982 0.0133052 0.0134914 0.013656 0.0137852 0.0138271 0.0138433 0.0138335 0.0137975 0.0137351 0.0136463 0.0135312 0.0133899 0.0132227 0.0130302 0.0128127 0.0125709 0.0123055 0.0120172 0.011707 0.011376 0.0110253 0.010656 0.0102693 0.00986656 0.00944908 0.00901824 0.00857547 0.00812223 0.00765996 0.00719015 0.0067143 0.00623385 0.00575027 0.00526501 0.00477948 0.00429505 0.00381304 0.00333476 0.00286143 0.00239423 0.00193426 0.00148259 0.00104017 0.0006079 0.000232349 -0.000124218 -0.000466806 -0.000794847 -0.00110786 -0.00140545 -0.00168729 -0.00195315 -0.00220287 -0.00243638 -0.00265368 -0.00285485 -0.00277097 -0.00265984 -0.00254242 -0.00241906 -0.00229009 -0.00215589 -0.00201687 -0.00187345 -0.00172607 -0.0015752 -0.0014213 -0.00126486 -0.00110639 -0.000946381 -0.000785346 -0.000623794 -0.000462229 -0.000301159 -0.000141074 1.75387e-05 0.000174204 0.000328471 0.000479891 0.000628046 0.000772533 0.000912982 0.00104902 0.00118034 0.00130663 0.00142763 0.0015431 0.00165283 0.00175663 0.00185436 0.00194589 0.00203114 0.00211004 0.00218256 0.0022487 0.00230848 0.00235921 0.00233133 0.00229971 0.00226448 0.00222578 0.00218375 0.00213856 0.00209038 0.00203938 0.00198576 0.00192969 0.00187138 0.00181102 0.00174882 0.00168499 0.00161971 0.00155321 0.00148566 0.00141728 0.00134825 0.00127876 0.00120899 0.00113911 0.0010693 0.000999705 0.000930482 0.000861773 0.000793692 0.000726364 0.000659923 0.000594469 0.0005301 0.000466904 0.000404957 0.000344328 0.000285076 0.000227257 0.00017091 0.000116072 6.27732e-05 1.10339e-05 -1.31087e-06 -1.34417e-06 -1.37669e-06 -1.40838e-06 -1.4392e-06 -1.46909e-06 -1.498e-06 -1.52587e-06 -1.55265e-06 -1.57828e-06 -1.60269e-06 -1.62581e-06 -1.64759e-06 -1.66795e-06 -1.68683e-06 -1.70415e-06 -1.71985e-06 -1.73385e-06 -1.74608e-06 -1.75649e-06 -1.765e-06 -1.77154e-06 -1.77608e-06 -1.77854e-06 -1.77887e-06 -1.77703e-06 -1.72414e-06 -1.59874e-06 -1.46751e-06 -1.33047e-06 -1.18767e-06 -1.03921e-06 -8.85187e-07 -7.25733e-07 -5.61015e-07 -3.91222e-07 -2.16576e-07 -3.73162e-08 1.39156e-07 3.1102e-07 4.87071e-07 6.66944e-07 8.50254e-07 1.03656e-06 1.22542e-06 1.41636e-06 1.60887e-06 1.80244e-06 1.99651e-06 2.19054e-06 2.38396e-06 2.57617e-06 2.76659e-06 2.95463e-06 3.13967e-06 3.32114e-06 3.49843e-06 3.67097e-06 3.83818e-06 3.99951e-06 4.15442e-06 4.3024e-06 4.44295e-06 4.57561e-06 4.69995e-06 4.81557e-06 4.90674e-06 4.78183e-06 4.64048e-06 4.48255e-06 4.30793e-06 4.11665e-06 3.90876e-06 3.68441e-06 3.44383e-06 3.18735e-06 2.91534e-06 2.62828e-06 2.32675e-06 1.99679e-06 1.63602e-06 1.26396e-06 8.81474e-07 4.89494e-07 8.90182e-08 -3.18883e-07 -7.33112e-07 -1.15249e-06 -1.57582e-06 -2.00187e-06 -2.42934e-06 -2.85694e-06 -3.28333e-06 -3.70721e-06 -4.12721e-06 -4.54201e-06 -4.95027e-06 -5.35071e-06 -5.74203e-06 -6.12297e-06 -6.49234e-06 -6.84897e-06 -7.19174e-06 -7.51962e-06 -7.83161e-06 1.25721e-05 0.000311199 0.000618921 0.00093562 0.00126113 0.00159525 0.00193774 0.00228829 0.00264657 0.00301217 0.00338467 0.00376356 0.00414826 0.00453821 0.00493276 0.00533124 0.0057328 0.00613663 0.00654185 0.00694753 0.00735274 0.00775642 0.00815757 0.00855509 0.00894788 0.00933479 
0.00969408 0.010065 0.0104265 0.0107775 0.0111168 0.0114433 0.0117557 0.012053 0.0123342 0.0125981 0.0128438 0.0130704 0.013277 0.0134628 0.0136271 0.013756 0.0137978 0.013814 0.0138042 0.0137683 0.013706 0.0136174 0.0135025 0.0133615 0.0131948 0.0130026 0.0127856 0.0125443 0.0122795 0.0119918 0.0116823 0.011352 0.011002 0.0106335 0.0102476 0.00984571 0.00942912 0.00899919 0.00855737 0.00810509 0.0076438 0.00717499 0.00670015 0.00622072 0.00573817 0.00525394 0.00476944 0.00428604 0.00380505 0.00332779 0.00285546 0.00238925 0.00193026 0.00147955 0.00103807 0.000606717 0.000231962 -0.000123851 -0.000465715 -0.000793063 -0.00110542 -0.00140238 -0.00168362 -0.00194892 -0.00219812 -0.00243114 -0.00264798 -0.00284872 -0.00276503 -0.00265413 -0.00253697 -0.00241387 -0.00228518 -0.00215127 -0.00201256 -0.00186944 -0.00172238 -0.00157183 -0.00141827 -0.00126216 -0.00110403 -0.000944371 -0.000783683 -0.000622478 -0.000461261 -0.000300538 -0.000140798 1.74733e-05 0.000173802 0.000327736 0.00047883 0.000626667 0.000770842 0.000910989 0.00104674 0.00117777 0.00130379 0.00142453 0.00153975 0.00164924 0.00175282 0.00185034 0.00194168 0.00202674 0.00210547 0.00217784 0.00224384 0.00230349 0.00235411 0.00232629 0.00229474 0.00225958 0.00222096 0.00217903 0.00213394 0.00208586 0.00203497 0.00198146 0.00192552 0.00186733 0.00180711 0.00174504 0.00168134 0.00161621 0.00154985 0.00148245 0.00141421 0.00134533 0.00127599 0.00120637 0.00113665 0.00106699 0.000997543 0.00092847 0.00085991 0.000791976 0.000724793 0.000658496 0.000593183 0.000528954 0.000465895 0.000404082 0.000343583 0.00028446 0.000226765 0.00017054 0.000115821 6.26374e-05 1.101e-05 -1.30803e-06 -1.34126e-06 -1.37371e-06 -1.40533e-06 -1.43608e-06 -1.46591e-06 -1.49476e-06 -1.52257e-06 -1.54929e-06 -1.57487e-06 -1.59922e-06 -1.6223e-06 -1.64403e-06 -1.66435e-06 -1.68319e-06 -1.70047e-06 -1.71613e-06 -1.7301e-06 -1.74231e-06 -1.7527e-06 -1.76119e-06 -1.76772e-06 -1.77225e-06 -1.7747e-06 -1.77503e-06 -1.7732e-06 -1.72042e-06 -1.5953e-06 -1.46434e-06 -1.3276e-06 -1.18511e-06 -1.03697e-06 -8.83277e-07 -7.24167e-07 -5.59803e-07 -3.90375e-07 -2.16105e-07 -3.72313e-08 1.38862e-07 3.10356e-07 4.86028e-07 6.65515e-07 8.48431e-07 1.03434e-06 1.22279e-06 1.41332e-06 1.60542e-06 1.79857e-06 1.99222e-06 2.18584e-06 2.37884e-06 2.57064e-06 2.76065e-06 2.94828e-06 3.13293e-06 3.31401e-06 3.49092e-06 3.66308e-06 3.82994e-06 3.99092e-06 4.1455e-06 4.29315e-06 4.4334e-06 4.56578e-06 4.68985e-06 4.80522e-06 4.8962e-06 4.77155e-06 4.63051e-06 4.47291e-06 4.29867e-06 4.1078e-06 3.90035e-06 3.67648e-06 3.43642e-06 3.18049e-06 2.90906e-06 2.62261e-06 2.32173e-06 1.99249e-06 1.63249e-06 1.26122e-06 8.79558e-07 4.88419e-07 8.88027e-08 -3.18223e-07 -7.31564e-07 -1.15004e-06 -1.57247e-06 -1.9976e-06 -2.42415e-06 -2.85083e-06 -3.27631e-06 -3.69928e-06 -4.11838e-06 -4.53228e-06 -4.93968e-06 -5.33926e-06 -5.72973e-06 -6.10985e-06 -6.47843e-06 -6.8343e-06 -7.17634e-06 -7.50351e-06 -7.81483e-06 1.25456e-05 0.000310539 0.00061761 0.000933638 0.00125846 0.00159187 0.00193364 0.00228344 0.00264096 0.00300579 0.0033775 0.00375558 0.00413947 0.0045286 0.00492231 0.00531994 0.00572065 0.00612363 0.00652798 0.00693281 0.00733716 0.00773999 0.00814029 0.00853697 0.00892892 0.00931501 
0.00967043 0.0100404 0.0104011 0.0107512 0.0110897 0.0114153 0.011727 0.0120236 0.0123041 0.0125674 0.0128125 0.0130386 0.0132447 0.01343 0.0135939 0.0137225 0.0137641 0.0137803 0.0137705 0.0137347 0.0136726 0.0135842 0.0134696 0.013329 0.0131626 0.0129709 0.0127544 0.0125137 0.0122496 0.0119626 0.0116538 0.0113243 0.0109752 0.0106076 0.0102227 0.00982176 0.00940618 0.00897731 0.00853657 0.00808539 0.00762524 0.00715758 0.00668389 0.00620564 0.00572427 0.00524122 0.0047579 0.00427569 0.00379588 0.00331978 0.00284861 0.00238354 0.00192567 0.00147606 0.00103565 0.000605358 0.000231516 -0.000123431 -0.000464462 -0.000791014 -0.00110261 -0.00139885 -0.00167941 -0.00194406 -0.00219266 -0.00242511 -0.00264143 -0.00284168 -0.0027582 -0.00264758 -0.00253071 -0.00240792 -0.00227954 -0.00214597 -0.0020076 -0.00186484 -0.00171814 -0.00156797 -0.00141478 -0.00125907 -0.00110133 -0.000942061 -0.000781771 -0.000620967 -0.000460149 -0.000299825 -0.000140481 1.73983e-05 0.000173339 0.000326892 0.000477612 0.000625082 0.0007689 0.000908699 0.00104411 0.00117482 0.00130053 0.00142097 0.00153591 0.00164513 0.00174845 0.00184573 0.00193684 0.00202169 0.00210023 0.00217241 0.00223825 0.00229775 0.00234825 0.00232049 0.00228902 0.00225396 0.00221543 0.00217361 0.00212863 0.00208067 0.00202991 0.00197653 0.00192072 0.00186268 0.00180261 0.0017407 0.00167716 0.00161219 0.00154599 0.00147876 0.00141069 0.00134199 0.00127282 0.00120337 0.00113382 0.00106433 0.00099506 0.000926159 0.000857769 0.000790004 0.000722989 0.000656856 0.000591707 0.000527637 0.000464735 0.000403076 0.000342728 0.000283752 0.000226201 0.000170116 0.000115533 6.24815e-05 1.09826e-05 -1.30477e-06 -1.33792e-06 -1.37029e-06 -1.40183e-06 -1.43251e-06 -1.46226e-06 -1.49103e-06 -1.51878e-06 -1.54544e-06 -1.57095e-06 -1.59524e-06 -1.61827e-06 -1.63995e-06 -1.66021e-06 -1.679e-06 -1.69624e-06 -1.71187e-06 -1.7258e-06 -1.73798e-06 -1.74834e-06 -1.75681e-06 -1.76334e-06 -1.76785e-06 -1.7703e-06 -1.77063e-06 -1.7688e-06 -1.71615e-06 -1.59134e-06 -1.46071e-06 -1.3243e-06 -1.18217e-06 -1.03439e-06 -8.81083e-07 -7.22367e-07 -5.58411e-07 -3.89403e-07 -2.15564e-07 -3.71337e-08 1.38523e-07 3.09593e-07 4.84831e-07 6.63873e-07 8.46337e-07 1.03178e-06 1.21977e-06 1.40983e-06 1.60145e-06 1.79412e-06 1.9873e-06 2.18044e-06 2.37296e-06 2.56428e-06 2.75382e-06 2.94099e-06 3.12518e-06 3.30581e-06 3.48229e-06 3.65402e-06 3.82046e-06 3.98105e-06 4.13524e-06 4.28254e-06 4.42243e-06 4.55449e-06 4.67825e-06 4.79334e-06 4.88408e-06 4.75975e-06 4.61905e-06 4.46184e-06 4.28803e-06 4.09763e-06 3.8907e-06 3.66738e-06 3.42791e-06 3.1726e-06 2.90185e-06 2.61611e-06 2.31597e-06 1.98754e-06 1.62843e-06 1.25808e-06 8.77358e-07 4.87184e-07 8.85552e-08 -3.17465e-07 -7.29785e-07 -1.14723e-06 -1.56861e-06 -1.99269e-06 -2.41819e-06 -2.84382e-06 -3.26825e-06 -3.69017e-06 -4.10824e-06 -4.52112e-06 -4.9275e-06 -5.3261e-06 -5.7156e-06 -6.09479e-06 -6.46246e-06 -6.81744e-06 -7.15864e-06 -7.485e-06 -7.79556e-06 1.25153e-05 0.000309782 0.000616103 0.00093136 0.00125539 0.00158799 0.00192892 0.00227787 0.00263452 0.00299846 0.00336926 0.00374642 0.00412937 0.00451755 0.0049103 0.00530696 0.0057067 0.00610869 0.00651206 0.0069159 0.00731926 0.00772111 0.00812043 0.00851614 0.00890714 0.00929228 
0.0096436 0.0100126 0.0103722 0.0107214 0.0110589 0.0113837 0.0116945 0.0119903 0.01227 0.0125325 0.012777 0.0130024 0.0132079 0.0133927 0.0135561 0.0136844 0.0137259 0.013742 0.0137323 0.0136966 0.0136347 0.0135465 0.0134323 0.013292 0.0131261 0.0129349 0.0127191 0.0124791 0.0122156 0.0119294 0.0116215 0.011293 0.0109448 0.0105782 0.0101944 0.00979459 0.00938017 0.00895249 0.00851297 0.00806305 0.00760418 0.00713782 0.00666545 0.00618853 0.0057085 0.00522679 0.00474482 0.00426394 0.00378547 0.0033107 0.00284084 0.00237706 0.00192046 0.0014721 0.00103292 0.000603816 0.000231009 -0.000122955 -0.000463042 -0.00078869 -0.00109942 -0.00139484 -0.00167463 -0.00193856 -0.00218646 -0.00241828 -0.002634 -0.0028337 -0.00275046 -0.00264015 -0.00252361 -0.00240116 -0.00227315 -0.00213995 -0.00200197 -0.00185962 -0.00171333 -0.00156358 -0.00141083 -0.00125555 -0.00109826 -0.00093944 -0.000779603 -0.000619252 -0.000458888 -0.000299016 -0.00014012 1.73135e-05 0.000172815 0.000325935 0.00047623 0.000623284 0.000766697 0.000906103 0.00104113 0.00117147 0.00129683 0.00141693 0.00153154 0.00164046 0.00174349 0.00184049 0.00193135 0.00201596 0.00209428 0.00216626 0.00223191 0.00229125 0.0023416 0.00231393 0.00228254 0.00224758 0.00220916 0.00216745 0.0021226 0.00207478 0.00202416 0.00197093 0.00191529 0.00185741 0.0017975 0.00173577 0.00167241 0.00160762 0.00154161 0.00147457 0.0014067 0.00133819 0.00126922 0.00119996 0.00113061 0.00106132 0.000992243 0.000923537 0.000855341 0.000787768 0.000720942 0.000654997 0.000590032 0.000526143 0.000463419 0.000401935 0.000341758 0.000282949 0.000225561 0.000169634 0.000115206 6.23047e-05 1.09516e-05 -1.30107e-06 -1.33412e-06 -1.3664e-06 -1.39786e-06 -1.42845e-06 -1.45812e-06 -1.48681e-06 -1.51448e-06 -1.54106e-06 -1.5665e-06 -1.59073e-06 -1.61369e-06 -1.63531e-06 -1.65552e-06 -1.67426e-06 -1.69145e-06 -1.70703e-06 -1.72093e-06 -1.73308e-06 -1.74341e-06 -1.75185e-06 -1.75836e-06 -1.76286e-06 -1.7653e-06 -1.76563e-06 -1.76381e-06 -1.71131e-06 -1.58685e-06 -1.45659e-06 -1.32057e-06 -1.17883e-06 -1.03147e-06 -8.78595e-07 -7.20326e-07 -5.56832e-07 -3.883e-07 -2.14951e-07 -3.70232e-08 1.38139e-07 3.08728e-07 4.83473e-07 6.62011e-07 8.43961e-07 1.02889e-06 1.21635e-06 1.40587e-06 1.59695e-06 1.78908e-06 1.98171e-06 2.17431e-06 2.36629e-06 2.55707e-06 2.74608e-06 2.93272e-06 3.11639e-06 3.29652e-06 3.47249e-06 3.64375e-06 3.80972e-06 3.96985e-06 4.12361e-06 4.27049e-06 4.41e-06 4.54168e-06 4.66509e-06 4.77986e-06 4.87035e-06 4.74636e-06 4.60606e-06 4.44929e-06 4.27597e-06 4.0861e-06 3.87974e-06 3.65705e-06 3.41826e-06 3.16367e-06 2.89367e-06 2.60873e-06 2.30943e-06 1.98192e-06 1.62382e-06 1.25452e-06 8.74862e-07 4.85785e-07 8.82747e-08 -3.16605e-07 -7.27768e-07 -1.14404e-06 -1.56424e-06 -1.98713e-06 -2.41143e-06 -2.83586e-06 -3.2591e-06 -3.67984e-06 -4.09673e-06 -4.50845e-06 -4.91369e-06 -5.31117e-06 -5.69958e-06 -6.0777e-06 -6.44434e-06 -6.79832e-06 -7.13856e-06 -7.46401e-06 -7.77369e-06 1.24808e-05 0.000308923 0.000614395 0.000928777 0.00125191 0.00158359 0.00192357 0.00227156 0.00262721 0.00299014 0.00335991 0.00373603 0.00411792 0.00450502 0.00489668 0.00529224 0.00569087 0.00609174 0.006494 0.00689671 0.00729895 0.00769969 0.0080979 0.00849252 0.00888243 0.00926651 
0.00961348 0.00998129 0.0103398 0.0106879 0.0110244 0.0113481 0.011658 0.0119528 0.0122316 0.0124934 0.0127371 0.0129618 0.0131667 0.0133509 0.0135138 0.0136417 0.0136831 0.0136991 0.0136895 0.0136538 0.0135921 0.0135042 0.0133903 0.0132505 0.0130851 0.0128946 0.0126794 0.0124401 0.0121775 0.0118922 0.0115853 0.0112578 0.0109107 0.0105452 0.0101626 0.00976407 0.00935095 0.00892461 0.00848647 0.00803797 0.00758053 0.00711563 0.00664474 0.00616931 0.00569079 0.00521059 0.00473013 0.00425076 0.00377378 0.00330049 0.0028321 0.00236977 0.00191461 0.00146765 0.00102984 0.000602082 0.000230439 -0.000122421 -0.000461448 -0.000786082 -0.00109585 -0.00139035 -0.00166927 -0.00193237 -0.00217951 -0.0024106 -0.00262565 -0.00282474 -0.00274176 -0.0026318 -0.00251563 -0.00239358 -0.00226597 -0.0021332 -0.00199565 -0.00185375 -0.00170793 -0.00155866 -0.00140639 -0.00125161 -0.00109481 -0.000936498 -0.000777168 -0.000617326 -0.000457471 -0.000298106 -0.000139716 1.72185e-05 0.000172226 0.000324861 0.000474678 0.000621266 0.000764224 0.000903187 0.00103779 0.00116771 0.00129267 0.00141239 0.00152665 0.00163521 0.00173792 0.00183461 0.00192518 0.00200953 0.00208759 0.00215935 0.00222479 0.00228394 0.00233414 0.00230655 0.00227527 0.00224041 0.00220212 0.00216055 0.00211584 0.00206817 0.00201771 0.00196465 0.00190918 0.00185149 0.00179178 0.00173024 0.00166708 0.0016025 0.0015367 0.00146987 0.00140222 0.00133392 0.00126517 0.00119614 0.00112701 0.00105794 0.000989081 0.000920594 0.000852615 0.000785257 0.000718645 0.000652909 0.000588151 0.000524466 0.000461942 0.000400654 0.000340668 0.000282047 0.000224842 0.000169094 0.000114839 6.21061e-05 1.09167e-05 -1.29692e-06 -1.32986e-06 -1.36204e-06 -1.3934e-06 -1.42389e-06 -1.45347e-06 -1.48207e-06 -1.50965e-06 -1.53615e-06 -1.56151e-06 -1.58566e-06 -1.60855e-06 -1.6301e-06 -1.65025e-06 -1.66893e-06 -1.68607e-06 -1.7016e-06 -1.71545e-06 -1.72756e-06 -1.73786e-06 -1.74628e-06 -1.75277e-06 -1.75725e-06 -1.75969e-06 -1.76002e-06 -1.75821e-06 -1.70587e-06 -1.58181e-06 -1.45196e-06 -1.31637e-06 -1.17509e-06 -1.02819e-06 -8.75801e-07 -7.18035e-07 -5.55059e-07 -3.87062e-07 -2.14263e-07 -3.6899e-08 1.37708e-07 3.07757e-07 4.81947e-07 6.5992e-07 8.41294e-07 1.02563e-06 1.2125e-06 1.40142e-06 1.5919e-06 1.78342e-06 1.97544e-06 2.16743e-06 2.3588e-06 2.54898e-06 2.73739e-06 2.92343e-06 3.10653e-06 3.28608e-06 3.4615e-06 3.63221e-06 3.79765e-06 3.95728e-06 4.11055e-06 4.25697e-06 4.39603e-06 4.52729e-06 4.65031e-06 4.76472e-06 4.85492e-06 4.73132e-06 4.59146e-06 4.43519e-06 4.26242e-06 4.07314e-06 3.86744e-06 3.64546e-06 3.40741e-06 3.15363e-06 2.88448e-06 2.60045e-06 2.3021e-06 1.97562e-06 1.61865e-06 1.25051e-06 8.7206e-07 4.84213e-07 8.796e-08 -3.1564e-07 -7.25502e-07 -1.14046e-06 -1.55933e-06 -1.98088e-06 -2.40384e-06 -2.82693e-06 -3.24883e-06 -3.66823e-06 -4.08381e-06 -4.49423e-06 -4.89819e-06 -5.29441e-06 -5.68159e-06 -6.05851e-06 -6.42399e-06 -6.77686e-06 -7.11602e-06 -7.44043e-06 -7.74914e-06 1.24421e-05 0.000307958 0.000612476 0.000925876 0.001248 0.00157864 0.00191756 0.00226446 0.002619 0.0029808 0.00334942 0.00372436 0.00410506 0.00449094 0.00488139 0.00527571 0.00567309 0.00607271 0.00647371 0.00687517 0.00727615 0.00767564 0.00807261 0.00846599 0.00885468 0.00923756 
0.00957991 0.00994644 0.0103037 0.0106506 0.0109859 0.0113085 0.0116173 0.0119111 0.0121889 0.0124497 0.0126926 0.0129165 0.0131207 0.0133043 0.0134666 0.013594 0.0136353 0.0136513 0.0136417 0.0136062 0.0135447 0.0134571 0.0133436 0.0132043 0.0130395 0.0128496 0.0126351 0.0123967 0.0121351 0.0118508 0.0115449 0.0112185 0.0108727 0.0105085 0.0101272 0.00973007 0.0093184 0.00889355 0.00845695 0.00801001 0.00755418 0.00709091 0.00662167 0.0061479 0.00567105 0.00519254 0.00471375 0.00423606 0.00376075 0.00328912 0.00282237 0.00236166 0.00190809 0.00146269 0.00102641 0.00060015 0.000229803 -0.000121827 -0.000459673 -0.000783176 -0.00109186 -0.00138534 -0.00166329 -0.00192548 -0.00217176 -0.00240205 -0.00261636 -0.00281476 -0.00273207 -0.00262251 -0.00250675 -0.00238512 -0.00225797 -0.00212567 -0.00198861 -0.00184722 -0.00170192 -0.00155317 -0.00140144 -0.00124721 -0.00109097 -0.000933219 -0.000774455 -0.00061518 -0.000455893 -0.000297093 -0.000139265 1.71129e-05 0.000171571 0.000323664 0.00047295 0.000619018 0.000761469 0.00089994 0.00103407 0.00116353 0.00128804 0.00140734 0.00152119 0.00162937 0.00173171 0.00182806 0.00191831 0.00200236 0.00208015 0.00215165 0.00221686 0.00227581 0.00232583 0.00229834 0.00226716 0.00223243 0.00219428 0.00215285 0.0021083 0.0020608 0.00201052 0.00195765 0.00190238 0.00184489 0.00178539 0.00172408 0.00166114 0.00159679 0.00153123 0.00146464 0.00139722 0.00132917 0.00126066 0.00119188 0.00112299 0.00105417 0.000985557 0.000917314 0.000849578 0.00078246 0.000716085 0.000650584 0.000586056 0.000522598 0.000460297 0.000399226 0.000339455 0.000281042 0.000224041 0.000168491 0.00011443 6.18849e-05 1.08778e-05 -1.29229e-06 -1.32512e-06 -1.35718e-06 -1.38843e-06 -1.41882e-06 -1.44829e-06 -1.47679e-06 -1.50428e-06 -1.53068e-06 -1.55595e-06 -1.58002e-06 -1.60283e-06 -1.6243e-06 -1.64438e-06 -1.66299e-06 -1.68007e-06 -1.69555e-06 -1.70936e-06 -1.72142e-06 -1.73169e-06 -1.74008e-06 -1.74654e-06 -1.75101e-06 -1.75344e-06 -1.75377e-06 -1.75197e-06 -1.69982e-06 -1.57619e-06 -1.4468e-06 -1.31169e-06 -1.17091e-06 -1.02454e-06 -8.72688e-07 -7.15481e-07 -5.53083e-07 -3.85682e-07 -2.13496e-07 -3.67608e-08 1.37228e-07 3.06674e-07 4.80248e-07 6.57591e-07 8.38322e-07 1.02201e-06 1.20821e-06 1.39646e-06 1.58627e-06 1.77711e-06 1.96845e-06 2.15976e-06 2.35045e-06 2.53996e-06 2.7277e-06 2.91309e-06 3.09553e-06 3.27445e-06 3.44925e-06 3.61935e-06 3.78421e-06 3.94327e-06 4.096e-06 4.2419e-06 4.38047e-06 4.51127e-06 4.63385e-06 4.74785e-06 4.83773e-06 4.71457e-06 4.57521e-06 4.41948e-06 4.24732e-06 4.05872e-06 3.85374e-06 3.63254e-06 3.39533e-06 3.14245e-06 2.87425e-06 2.59122e-06 2.29392e-06 1.9686e-06 1.61289e-06 1.24605e-06 8.68938e-07 4.82462e-07 8.76096e-08 -3.14564e-07 -7.22977e-07 -1.13646e-06 -1.55386e-06 -1.97391e-06 -2.39539e-06 -2.81698e-06 -3.23739e-06 -3.65531e-06 -4.06941e-06 -4.47838e-06 -4.88091e-06 -5.27573e-06 -5.66155e-06 -6.03713e-06 -6.40132e-06 -6.75294e-06 -7.0909e-06 -7.41417e-06 -7.72178e-06 1.23989e-05 0.000306883 0.000610337 0.000922644 0.00124364 0.00157313 0.00191086 0.00225655 0.00260986 0.00297039 0.00333772 0.00371136 0.00409072 0.00447526 0.00486434 0.00525729 0.00565328 0.00605151 0.00645111 0.00685116 0.00725075 0.00764884 0.00804442 0.00843643 0.00882377 0.00920531 
0.00954275 0.00990786 0.0102637 0.0106093 0.0109433 0.0112646 0.0115722 0.0118649 0.0121416 0.0124015 0.0126434 0.0128664 0.0130698 0.0132527 0.0134144 0.0135413 0.0135824 0.0135984 0.0135888 0.0135534 0.0134922 0.0134049 0.0132919 0.0131531 0.0129889 0.0127998 0.0125862 0.0123487 0.0120881 0.0118049 0.0115002 0.0111751 0.0108306 0.0104678 0.010088 0.00969243 0.00928236 0.00885917 0.00842426 0.00797906 0.007525 0.00706353 0.00659612 0.0061242 0.0056492 0.00517255 0.00469563 0.00421979 0.00374633 0.00327653 0.0028116 0.00235268 0.00190087 0.0014572 0.00102262 0.000598009 0.000229098 -0.000121171 -0.00045771 -0.000779961 -0.00108746 -0.0013798 -0.00165667 -0.00191785 -0.00216318 -0.00239259 -0.00260607 -0.0028037 -0.00272135 -0.00261221 -0.00249691 -0.00237577 -0.00224912 -0.00211734 -0.00198082 -0.00183998 -0.00169526 -0.00154709 -0.00139597 -0.00124234 -0.00108672 -0.00092959 -0.000771451 -0.000612805 -0.000454145 -0.000295971 -0.000138765 1.69965e-05 0.000170846 0.00032234 0.000471038 0.00061653 0.00075842 0.000896345 0.00102994 0.0011589 0.00128292 0.00140175 0.00151515 0.0016229 0.00172484 0.00182082 0.00191071 0.00199442 0.00207191 0.00214313 0.00220809 0.0022668 0.00231662 0.00228924 0.00225819 0.0022236 0.0021856 0.00214433 0.00209996 0.00205264 0.00200257 0.00194991 0.00189485 0.00183759 0.00177833 0.00171725 0.00165457 0.00159047 0.00152517 0.00145884 0.00139169 0.00132391 0.00125568 0.00118716 0.00111855 0.00105 0.000981658 0.000913684 0.000846216 0.000779364 0.000713251 0.000648009 0.000583737 0.00052053 0.000458475 0.000397647 0.000338112 0.00027993 0.000223154 0.000167825 0.000113977 6.164e-05 1.08347e-05 -1.28716e-06 -1.31987e-06 -1.35181e-06 -1.38293e-06 -1.4132e-06 -1.44255e-06 -1.47095e-06 -1.49832e-06 -1.52463e-06 -1.5498e-06 -1.57377e-06 -1.59649e-06 -1.61788e-06 -1.63788e-06 -1.65642e-06 -1.67343e-06 -1.68885e-06 -1.70261e-06 -1.71463e-06 -1.72485e-06 -1.73321e-06 -1.73965e-06 -1.7441e-06 -1.74652e-06 -1.74685e-06 -1.74505e-06 -1.69311e-06 -1.56997e-06 -1.4411e-06 -1.30652e-06 -1.16629e-06 -1.0205e-06 -8.69243e-07 -7.12655e-07 -5.50897e-07 -3.84155e-07 -2.12647e-07 -3.66078e-08 1.36696e-07 3.05476e-07 4.78367e-07 6.55012e-07 8.35032e-07 1.018e-06 1.20347e-06 1.39098e-06 1.58004e-06 1.77013e-06 1.96072e-06 2.15127e-06 2.34121e-06 2.52997e-06 2.71698e-06 2.90164e-06 3.08336e-06 3.26157e-06 3.43568e-06 3.60512e-06 3.76933e-06 3.92777e-06 4.0799e-06 4.22522e-06 4.36324e-06 4.49353e-06 4.61563e-06 4.72918e-06 4.81871e-06 4.69603e-06 4.55721e-06 4.4021e-06 4.23061e-06 4.04274e-06 3.83857e-06 3.61824e-06 3.38196e-06 3.13007e-06 2.86293e-06 2.581e-06 2.28487e-06 1.96083e-06 1.60652e-06 1.24112e-06 8.65483e-07 4.80524e-07 8.72221e-08 -3.13372e-07 -7.20182e-07 -1.13205e-06 -1.5478e-06 -1.96621e-06 -2.38602e-06 -2.80596e-06 -3.22472e-06 -3.641e-06 -4.05348e-06 -4.46084e-06 -4.86179e-06 -5.25505e-06 -5.63936e-06 -6.01347e-06 -6.37622e-06 -6.72646e-06 -7.06309e-06 -7.38509e-06 -7.6915e-06 1.23512e-05 0.000305693 0.00060797 0.000919065 0.00123882 0.00156703 0.00190345 0.0022478 0.00259974 0.00295887 0.00332478 0.00369696 0.00407486 0.0044579 0.00484547 0.0052369 0.00563135 0.00602804 0.00642608 0.00682459 0.00722262 0.00761917 0.00801322 0.0084037 0.00878954 0.0091696 
0.00950186 0.0098654 0.0102198 0.0105638 0.0108964 0.0112163 0.0115226 0.011814 0.0120896 0.0123483 0.0125892 0.0128113 0.0130138 0.0131959 0.0133569 0.0134833 0.0135242 0.0135401 0.0135305 0.0134954 0.0134344 0.0133475 0.0132349 0.0130968 0.0129333 0.012745 0.0125323 0.0122958 0.0120363 0.0117543 0.011451 0.0111273 0.0107843 0.0104231 0.0100449 0.009651 0.0092427 0.00882132 0.00838829 0.007945 0.0074929 0.00703341 0.006568 0.00609811 0.00562515 0.00515055 0.00467568 0.00420188 0.00373046 0.00326268 0.00279974 0.00234279 0.00189292 0.00145115 0.00101844 0.000595652 0.000228319 -0.000120451 -0.000455551 -0.000776425 -0.00108261 -0.0013737 -0.00164939 -0.00190946 -0.00215374 -0.00238217 -0.00259474 -0.00279154 -0.00270954 -0.00260089 -0.00248609 -0.00236547 -0.00223938 -0.00210817 -0.00197225 -0.00183202 -0.00168793 -0.00154041 -0.00138994 -0.00123699 -0.00108204 -0.000925596 -0.000768146 -0.00061019 -0.000452221 -0.000294736 -0.000138214 1.68689e-05 0.000170048 0.000320883 0.000468933 0.000613793 0.000755065 0.00089239 0.00102541 0.0011538 0.00127728 0.0013956 0.0015085 0.00161579 0.00171729 0.00181284 0.00190234 0.0019857 0.00206285 0.00213376 0.00219843 0.00225689 0.0023065 0.00227923 0.00224832 0.00221388 0.00217604 0.00213496 0.00209078 0.00204367 0.00199381 0.00194138 0.00188657 0.00182956 0.00177055 0.00170975 0.00164733 0.00158352 0.0015185 0.00145246 0.00138561 0.00131812 0.00125019 0.00118197 0.00111366 0.00104541 0.000977366 0.00090969 0.000842517 0.000775957 0.000710133 0.000645177 0.000581185 0.000518255 0.000456471 0.000395908 0.000336634 0.000278706 0.000222179 0.000167091 0.000113479 6.13706e-05 1.07874e-05 -1.28153e-06 -1.31409e-06 -1.34589e-06 -1.37688e-06 -1.40701e-06 -1.43624e-06 -1.46451e-06 -1.49177e-06 -1.51796e-06 -1.54302e-06 -1.5669e-06 -1.58951e-06 -1.61081e-06 -1.63073e-06 -1.64919e-06 -1.66613e-06 -1.68148e-06 -1.69518e-06 -1.70715e-06 -1.71733e-06 -1.72565e-06 -1.73206e-06 -1.7365e-06 -1.73891e-06 -1.73924e-06 -1.73745e-06 -1.68573e-06 -1.56313e-06 -1.43482e-06 -1.30083e-06 -1.16121e-06 -1.01605e-06 -8.65452e-07 -7.09545e-07 -5.48491e-07 -3.82474e-07 -2.11712e-07 -3.64396e-08 1.3611e-07 3.04157e-07 4.76297e-07 6.52174e-07 8.31412e-07 1.01358e-06 1.19825e-06 1.38494e-06 1.57318e-06 1.76244e-06 1.95221e-06 2.14193e-06 2.33105e-06 2.51899e-06 2.70518e-06 2.88903e-06 3.06997e-06 3.24741e-06 3.42076e-06 3.58946e-06 3.75296e-06 3.91071e-06 4.06218e-06 4.20686e-06 4.34429e-06 4.474e-06 4.59558e-06 4.70863e-06 4.79777e-06 4.67562e-06 4.53741e-06 4.38296e-06 4.21222e-06 4.02517e-06 3.82188e-06 3.6025e-06 3.36725e-06 3.11645e-06 2.85046e-06 2.56976e-06 2.27491e-06 1.95227e-06 1.5995e-06 1.23569e-06 8.61681e-07 4.78392e-07 8.67961e-08 -3.1206e-07 -7.17105e-07 -1.12718e-06 -1.54113e-06 -1.95773e-06 -2.37572e-06 -2.79383e-06 -3.21078e-06 -3.62525e-06 -4.03594e-06 -4.44153e-06 -4.84074e-06 -5.2323e-06 -5.61494e-06 -5.98743e-06 -6.34861e-06 -6.69733e-06 -7.0325e-06 -7.3531e-06 -7.65817e-06 1.22986e-05 0.000304384 0.000605365 0.000915127 0.00123351 0.00156031 0.0018953 0.00223817 0.0025886 0.00294619 0.00331053 0.00368112 0.00405739 0.0044388 0.00482471 0.00521445 0.00560722 0.0060022 0.00639854 0.00679534 0.00719167 0.00758651 0.00797888 0.00836769 0.00875187 0.0091303 
0.00945705 0.00981888 0.0101716 0.010514 0.010845 0.0111635 0.0114683 0.0117583 0.0120326 0.0122901 0.0125298 0.0127509 0.0129524 0.0131337 0.0132939 0.0134197 0.0134604 0.0134763 0.0134668 0.0134317 0.013371 0.0132846 0.0131726 0.0130351 0.0128724 0.012685 0.0124733 0.0122379 0.0119796 0.011699 0.0113971 0.0110749 0.0107335 0.010374 0.00999764 0.00960562 0.00919924 0.00877986 0.00834887 0.00790769 0.00745772 0.0070004 0.0065372 0.00606952 0.0055988 0.00512644 0.00465382 0.00418226 0.00371306 0.00324749 0.00278674 0.00233195 0.0018842 0.00144453 0.00101385 0.000593066 0.000227464 -0.000119665 -0.000453188 -0.000772553 -0.00107729 -0.00136702 -0.00164142 -0.00190026 -0.0021434 -0.00237076 -0.00258234 -0.00277822 -0.00269662 -0.00258848 -0.00247423 -0.00235419 -0.0022287 -0.00209813 -0.00196286 -0.0018233 -0.0016799 -0.00153309 -0.00138334 -0.00123112 -0.00107691 -0.00092122 -0.000764524 -0.000607325 -0.000450113 -0.000293383 -0.000137611 1.67296e-05 0.000169175 0.000319287 0.000466629 0.000610795 0.000751391 0.000888058 0.00102044 0.00114822 0.00127111 0.00138886 0.00150122 0.001608 0.00170901 0.0018041 0.00189318 0.00197613 0.00205291 0.00212349 0.00218785 0.00224603 0.0022954 0.00226827 0.00223751 0.00220323 0.00216558 0.00212469 0.00208072 0.00203384 0.00198422 0.00193205 0.0018775 0.00182076 0.00176204 0.00170152 0.00163941 0.00157591 0.0015112 0.00144548 0.00137895 0.00131178 0.00124417 0.00117629 0.0011083 0.00104038 0.000972666 0.000905315 0.000838465 0.000772225 0.000706718 0.000642074 0.00057839 0.000515762 0.000454276 0.000394004 0.000335015 0.000277366 0.00022111 0.000166287 0.000112933 6.10754e-05 1.07355e-05 -1.27535e-06 -1.30776e-06 -1.33941e-06 -1.37025e-06 -1.40024e-06 -1.42933e-06 -1.45747e-06 -1.4846e-06 -1.51066e-06 -1.53561e-06 -1.55936e-06 -1.58188e-06 -1.60307e-06 -1.62289e-06 -1.64127e-06 -1.65813e-06 -1.67341e-06 -1.68704e-06 -1.69895e-06 -1.70908e-06 -1.71737e-06 -1.72375e-06 -1.72817e-06 -1.73057e-06 -1.7309e-06 -1.72912e-06 -1.67765e-06 -1.55564e-06 -1.42794e-06 -1.29459e-06 -1.15564e-06 -1.01117e-06 -8.61299e-07 -7.06139e-07 -5.45856e-07 -3.80634e-07 -2.10689e-07 -3.62553e-08 1.35469e-07 3.02712e-07 4.74029e-07 6.49065e-07 8.27447e-07 1.00874e-06 1.19253e-06 1.37833e-06 1.56566e-06 1.75402e-06 1.94288e-06 2.1317e-06 2.31991e-06 2.50695e-06 2.69225e-06 2.87523e-06 3.0553e-06 3.23189e-06 3.40441e-06 3.57231e-06 3.73502e-06 3.89202e-06 4.04276e-06 4.18676e-06 4.32353e-06 4.45262e-06 4.57361e-06 4.68613e-06 4.77484e-06 4.65327e-06 4.51571e-06 4.36201e-06 4.19207e-06 4.00591e-06 3.8036e-06 3.58526e-06 3.35113e-06 3.10152e-06 2.83681e-06 2.55745e-06 2.26401e-06 1.94291e-06 1.59181e-06 1.22974e-06 8.57517e-07 4.76057e-07 8.633e-08 -3.10623e-07 -7.13735e-07 -1.12186e-06 -1.53383e-06 -1.94843e-06 -2.36443e-06 -2.78055e-06 -3.1955e-06 -3.608e-06 -4.01673e-06 -4.42038e-06 -4.81769e-06 -5.20738e-06 -5.58819e-06 -5.9589e-06 -6.31836e-06 -6.66541e-06 -6.99898e-06 -7.31805e-06 -7.62167e-06 1.22411e-05 0.000302949 0.000602511 0.000910812 0.00122769 0.00155295 0.00188636 0.00222761 0.00257639 0.0029323 0.00329492 0.00366376 0.00403826 0.00441787 0.00480196 0.00518986 0.00558078 0.0059739 0.00636837 0.0067633 0.00715776 0.00755074 0.00794125 0.00832823 0.0087106 0.00908725 
0.00940815 0.0097681 0.010119 0.0104596 0.0107889 0.0111057 0.011409 0.0116975 0.0119704 0.0122265 0.012465 0.0126849 0.0128854 0.0130657 0.0132252 0.0133503 0.0133908 0.0134066 0.0133971 0.0133623 0.0133019 0.013216 0.0131045 0.0129677 0.0128059 0.0126194 0.0124088 0.0121747 0.0119178 0.0116386 0.0113382 0.0110177 0.0106781 0.0103205 0.00994606 0.00955607 0.00915181 0.0087346 0.00830585 0.00786695 0.00741932 0.00696437 0.00650357 0.00603832 0.00557004 0.00510013 0.00462995 0.00416084 0.00369408 0.00323092 0.00277255 0.00232012 0.00187469 0.0014373 0.00100885 0.000590242 0.000226528 -0.000118809 -0.00045061 -0.000768328 -0.0010715 -0.00135973 -0.00163272 -0.00189023 -0.00213212 -0.00235831 -0.0025688 -0.00276367 -0.0026825 -0.00257494 -0.00246129 -0.00234189 -0.00221705 -0.00208716 -0.0019526 -0.00181378 -0.00167113 -0.0015251 -0.00137613 -0.00122471 -0.00107132 -0.000916443 -0.000760571 -0.000604198 -0.000447812 -0.000291905 -0.000136951 1.65784e-05 0.000168224 0.000317547 0.000464115 0.000607524 0.000747382 0.000883332 0.00101502 0.00114212 0.00126437 0.0013815 0.00149328 0.00159949 0.00169997 0.00179457 0.00188318 0.0019657 0.00204208 0.00211228 0.00217631 0.00223418 0.0022833 0.00225631 0.00222571 0.00219161 0.00215415 0.00211348 0.00206975 0.00202312 0.00197376 0.00192186 0.00186759 0.00181116 0.00175275 0.00169255 0.00163077 0.00156759 0.00150323 0.00143785 0.00137167 0.00130487 0.00123761 0.00117008 0.00110246 0.00103489 0.000967536 0.000900541 0.000834043 0.000768152 0.000702991 0.000638687 0.00057534 0.000513042 0.00045188 0.000391926 0.000333248 0.000275903 0.000219944 0.000165411 0.000112338 6.07533e-05 1.06789e-05 -1.26862e-06 -1.30085e-06 -1.33234e-06 -1.36302e-06 -1.39285e-06 -1.42179e-06 -1.44978e-06 -1.47677e-06 -1.5027e-06 -1.52751e-06 -1.55114e-06 -1.57354e-06 -1.59463e-06 -1.61435e-06 -1.63262e-06 -1.6494e-06 -1.6646e-06 -1.67816e-06 -1.69001e-06 -1.70009e-06 -1.70834e-06 -1.71469e-06 -1.71908e-06 -1.72147e-06 -1.7218e-06 -1.72003e-06 -1.66883e-06 -1.54746e-06 -1.42043e-06 -1.28778e-06 -1.14956e-06 -1.00585e-06 -8.56767e-07 -7.02422e-07 -5.4298e-07 -3.78625e-07 -2.09573e-07 -3.60544e-08 1.34769e-07 3.01135e-07 4.71554e-07 6.45673e-07 8.23118e-07 1.00347e-06 1.18629e-06 1.37111e-06 1.55747e-06 1.74484e-06 1.9327e-06 2.12053e-06 2.30776e-06 2.49382e-06 2.67815e-06 2.86016e-06 3.03929e-06 3.21495e-06 3.38657e-06 3.55359e-06 3.71545e-06 3.87162e-06 4.02157e-06 4.16481e-06 4.30086e-06 4.42928e-06 4.54964e-06 4.66156e-06 4.74981e-06 4.62888e-06 4.49204e-06 4.33913e-06 4.17009e-06 3.9849e-06 3.78364e-06 3.56645e-06 3.33355e-06 3.08524e-06 2.82191e-06 2.54401e-06 2.2521e-06 1.93268e-06 1.58343e-06 1.22325e-06 8.52973e-07 4.73509e-07 8.58218e-08 -3.09054e-07 -7.10056e-07 -1.11604e-06 -1.52586e-06 -1.93829e-06 -2.35211e-06 -2.76605e-06 -3.17883e-06 -3.58917e-06 -3.99576e-06 -4.3973e-06 -4.79253e-06 -5.18018e-06 -5.55899e-06 -5.92776e-06 -6.28534e-06 -6.63057e-06 -6.9624e-06 -7.2798e-06 -7.58182e-06 1.21782e-05 0.000301382 0.000599396 0.000906102 0.00122134 0.00154492 0.0018766 0.00221609 0.00256307 0.00291714 0.00327788 0.00364481 0.00401738 0.00439502 0.00477713 0.00516303 0.00555192 0.00594301 0.00633544 0.00672832 0.00712074 0.00751169 0.00790018 0.00828516 0.00866556 0.00904026 
0.00935497 0.0097129 0.0100618 0.0104005 0.0107279 0.011043 0.0113445 0.0116314 0.0119027 0.0121574 0.0123946 0.0126132 0.0128126 0.0129919 0.0131504 0.0132748 0.0133152 0.0133308 0.0133214 0.0132868 0.0132268 0.0131413 0.0130305 0.0128945 0.0127336 0.0125482 0.0123388 0.012106 0.0118505 0.0115729 0.0112743 0.0109556 0.0106179 0.0102623 0.00988998 0.00950221 0.00910023 0.00868539 0.00825907 0.00782266 0.00737756 0.0069252 0.00646701 0.0060044 0.00553877 0.00507152 0.00460401 0.00413756 0.00367343 0.0032129 0.00275713 0.00230725 0.00186435 0.00142943 0.00100341 0.000587168 0.000225507 -0.000117881 -0.000447812 -0.000763738 -0.0010652 -0.00135181 -0.00162326 -0.00187932 -0.00211985 -0.00234477 -0.00255409 -0.00274787 -0.00266717 -0.00256022 -0.00244722 -0.0023285 -0.00220439 -0.00207525 -0.00194146 -0.00180344 -0.00166161 -0.00151641 -0.0013683 -0.00121775 -0.00106524 -0.000911251 -0.000756274 -0.000600798 -0.00044531 -0.000290298 -0.000136234 1.64147e-05 0.000167189 0.000315656 0.000461383 0.000603969 0.000743024 0.000878194 0.00100912 0.0011355 0.00125705 0.00137351 0.00148464 0.00159025 0.00169015 0.00178421 0.00187231 0.00195436 0.0020303 0.0021001 0.00216376 0.00222131 0.00227014 0.00224331 0.00221288 0.00217898 0.00214174 0.0021013 0.00205782 0.00201146 0.00196238 0.00191078 0.00185683 0.00180072 0.00174264 0.0016828 0.00162137 0.00155856 0.00149456 0.00142957 0.00136377 0.00129735 0.00123048 0.00116334 0.00109611 0.00102893 0.00096196 0.000895351 0.000829236 0.000763726 0.000698939 0.000635007 0.000572024 0.000510086 0.000449276 0.000389668 0.000331327 0.000274313 0.000218677 0.000164457 0.00011169 6.04032e-05 1.06174e-05 -1.26129e-06 -1.29334e-06 -1.32465e-06 -1.35515e-06 -1.38482e-06 -1.41359e-06 -1.44142e-06 -1.46826e-06 -1.49404e-06 -1.51871e-06 -1.54221e-06 -1.56448e-06 -1.58545e-06 -1.60505e-06 -1.62323e-06 -1.63991e-06 -1.65502e-06 -1.66851e-06 -1.68029e-06 -1.69032e-06 -1.69852e-06 -1.70483e-06 -1.7092e-06 -1.71158e-06 -1.71191e-06 -1.71015e-06 -1.65925e-06 -1.53857e-06 -1.41227e-06 -1.28038e-06 -1.14296e-06 -1.00007e-06 -8.5184e-07 -6.98381e-07 -5.39853e-07 -3.76442e-07 -2.08359e-07 -3.58361e-08 1.34008e-07 2.99421e-07 4.68863e-07 6.41984e-07 8.18413e-07 9.97728e-07 1.1795e-06 1.36327e-06 1.54855e-06 1.73485e-06 1.92164e-06 2.10839e-06 2.29454e-06 2.47954e-06 2.66281e-06 2.84379e-06 3.02189e-06 3.19654e-06 3.36718e-06 3.53324e-06 3.69417e-06 3.84945e-06 3.99854e-06 4.14096e-06 4.27623e-06 4.40391e-06 4.52358e-06 4.63486e-06 4.72261e-06 4.60236e-06 4.4663e-06 4.31427e-06 4.14619e-06 3.96206e-06 3.76195e-06 3.546e-06 3.31443e-06 3.06754e-06 2.80571e-06 2.5294e-06 2.23916e-06 1.92157e-06 1.57431e-06 1.21619e-06 8.48034e-07 4.7074e-07 8.52701e-08 -3.07347e-07 -7.06055e-07 -1.10972e-06 -1.51719e-06 -1.92727e-06 -2.33872e-06 -2.75029e-06 -3.16071e-06 -3.5687e-06 -3.97296e-06 -4.37221e-06 -4.76518e-06 -5.15061e-06 -5.52725e-06 -5.89392e-06 -6.24944e-06 -6.5927e-06 -6.92263e-06 -7.23822e-06 -7.53851e-06 1.21099e-05 0.00029968 0.000596009 0.000900982 0.00121444 0.00153619 0.001866 0.00220357 0.00254858 0.00290065 0.00325935 0.00362421 0.00399467 0.00437018 0.00475013 0.00513385 0.00552054 0.00590942 0.00629963 0.0066903 0.0070805 0.00746924 0.00785554 0.00823834 0.00861658 0.00898916 
0.00929734 0.00965306 0.0099998 0.0103364 0.0106618 0.0109749 0.0112746 0.0115597 0.0118294 0.0120825 0.0123182 0.0125355 0.0127337 0.0129119 0.0130694 0.0131931 0.0132331 0.0132487 0.0132394 0.013205 0.0131453 0.0130604 0.0129502 0.0128151 0.0126552 0.0124709 0.0122628 0.0120315 0.0117776 0.0115017 0.0112049 0.0108882 0.0105526 0.0101992 0.0098292 0.00944382 0.00904433 0.00863206 0.00820837 0.00777466 0.00733231 0.00688274 0.00642738 0.00596762 0.00550487 0.00504051 0.00457588 0.00411231 0.00365105 0.00319336 0.0027404 0.0022933 0.00185313 0.0014209 0.000997505 0.000583832 0.000224398 -0.000116879 -0.000444782 -0.000758767 -0.00105838 -0.00134323 -0.00161301 -0.00186751 -0.00210656 -0.00233011 -0.00253814 -0.00273074 -0.00265054 -0.00254427 -0.00243198 -0.002314 -0.00219067 -0.00206233 -0.00192938 -0.00179223 -0.00165128 -0.00150699 -0.00135981 -0.0012102 -0.00105865 -0.000905623 -0.000751615 -0.000597113 -0.000442598 -0.000288556 -0.000135455 1.62383e-05 0.00016607 0.000313608 0.000458423 0.000600117 0.000738303 0.000872628 0.00100274 0.00112833 0.00124912 0.00136484 0.00147528 0.00158023 0.00167951 0.00177298 0.00186053 0.00194207 0.00201753 0.0020869 0.00215017 0.00220735 0.00225588 0.00222922 0.00219898 0.00216529 0.00212829 0.0020881 0.0020449 0.00199882 0.00195006 0.00189878 0.00184517 0.00178941 0.0017317 0.00167223 0.00161118 0.00154877 0.00148518 0.00142059 0.0013552 0.0012892 0.00122275 0.00115603 0.00108922 0.00102247 0.000955918 0.000889727 0.000824028 0.000758929 0.000694549 0.000631018 0.000568431 0.000506882 0.000446454 0.00038722 0.000329246 0.00027259 0.000217303 0.000163424 0.000110989 6.00238e-05 1.05507e-05 -1.25336e-06 -1.28521e-06 -1.31632e-06 -1.34663e-06 -1.37611e-06 -1.40471e-06 -1.43237e-06 -1.45904e-06 -1.48466e-06 -1.50918e-06 -1.53253e-06 -1.55466e-06 -1.5755e-06 -1.59498e-06 -1.61305e-06 -1.62962e-06 -1.64465e-06 -1.65805e-06 -1.66976e-06 -1.67972e-06 -1.68787e-06 -1.69415e-06 -1.69849e-06 -1.70086e-06 -1.70119e-06 -1.69944e-06 -1.64886e-06 -1.52893e-06 -1.40342e-06 -1.27236e-06 -1.1358e-06 -9.93806e-07 -8.46502e-07 -6.94002e-07 -5.36466e-07 -3.74076e-07 -2.07044e-07 -3.55998e-08 1.33183e-07 2.97563e-07 4.65947e-07 6.37987e-07 8.13315e-07 9.91509e-07 1.17215e-06 1.35477e-06 1.53889e-06 1.72403e-06 1.90965e-06 2.09524e-06 2.28023e-06 2.46407e-06 2.6462e-06 2.82604e-06 3.00303e-06 3.17659e-06 3.34616e-06 3.51118e-06 3.67111e-06 3.82542e-06 3.97358e-06 4.11511e-06 4.24954e-06 4.37642e-06 4.49534e-06 4.60593e-06 4.69312e-06 4.57363e-06 4.43841e-06 4.28733e-06 4.12029e-06 3.93731e-06 3.73844e-06 3.52384e-06 3.29371e-06 3.04836e-06 2.78816e-06 2.51357e-06 2.22514e-06 1.90953e-06 1.56443e-06 1.20854e-06 8.42682e-07 4.67741e-07 8.46731e-08 -3.05497e-07 -7.0172e-07 -1.10287e-06 -1.5078e-06 -1.91532e-06 -2.32421e-06 -2.73321e-06 -3.14107e-06 -3.54652e-06 -3.94826e-06 -4.34502e-06 -4.73553e-06 -5.11856e-06 -5.49286e-06 -5.85723e-06 -6.21055e-06 -6.55167e-06 -6.87953e-06 -7.19315e-06 -7.49158e-06 1.20358e-05 0.000297834 0.000592337 0.000895432 0.00120696 0.00152673 0.0018545 0.00219 0.00253288 0.00288278 0.00323927 0.00360189 0.00397006 0.00434326 0.00472086 0.00510222 0.00548653 0.00587301 0.00626082 0.00664908 0.00703688 0.00742323 0.00780714 0.00818759 0.0085635 0.00893379 
0.00923504 0.00958837 0.00993278 0.0102672 0.0105904 0.0109014 0.011199 0.0114823 0.0117501 0.0120016 0.0122357 0.0124515 0.0126483 0.0128253 0.0129818 0.0131047 0.0131445 0.0131599 0.0131507 0.0131165 0.0130573 0.0129729 0.0128635 0.0127293 0.0125704 0.0123874 0.0121807 0.011951 0.0116988 0.0114247 0.01113 0.0108154 0.010482 0.010131 0.00976349 0.0093807 0.00898389 0.00857439 0.00815355 0.00772275 0.00728338 0.00683683 0.00638453 0.00592786 0.00546822 0.00500698 0.00454547 0.00408501 0.00362685 0.00317223 0.00272232 0.00227822 0.00184101 0.00141167 0.000991119 0.000580222 0.000223194 -0.0001158 -0.00044151 -0.000753397 -0.00105101 -0.00133395 -0.00160194 -0.00185473 -0.0020922 -0.00231425 -0.0025209 -0.00271222 -0.00263258 -0.00252702 -0.0024155 -0.00229833 -0.00217583 -0.00204837 -0.00191633 -0.0017801 -0.00164012 -0.00149681 -0.00135064 -0.00120205 -0.00105152 -0.000899538 -0.00074658 -0.000593129 -0.000439665 -0.000286671 -0.000134612 1.60487e-05 0.000164861 0.000311395 0.000455225 0.000595956 0.000733202 0.000866613 0.000995839 0.00112057 0.00124054 0.00135548 0.00146517 0.0015694 0.00166801 0.00176085 0.0018478 0.00192878 0.00200374 0.00207264 0.00213547 0.00219227 0.00224047 0.00221399 0.00218396 0.0021505 0.00211375 0.00207384 0.00203093 0.00198517 0.00193674 0.00188581 0.00183256 0.00177719 0.00171987 0.0016608 0.00160018 0.00153819 0.00147503 0.00141089 0.00134594 0.00128039 0.0012144 0.00114814 0.00108178 0.00101548 0.000949388 0.000883649 0.000818399 0.000753744 0.000689805 0.000626708 0.000564548 0.000503419 0.000443404 0.000384575 0.000326997 0.000270728 0.000215819 0.000162308 0.00011023 5.96138e-05 1.04787e-05 -1.24478e-06 -1.27642e-06 -1.30731e-06 -1.33743e-06 -1.36671e-06 -1.39511e-06 -1.42258e-06 -1.44907e-06 -1.47452e-06 -1.49887e-06 -1.52207e-06 -1.54405e-06 -1.56475e-06 -1.5841e-06 -1.60204e-06 -1.61851e-06 -1.63343e-06 -1.64674e-06 -1.65838e-06 -1.66827e-06 -1.67637e-06 -1.6826e-06 -1.68692e-06 -1.68927e-06 -1.6896e-06 -1.68787e-06 -1.63763e-06 -1.51852e-06 -1.39387e-06 -1.26369e-06 -1.12806e-06 -9.87035e-07 -8.40732e-07 -6.89269e-07 -5.32805e-07 -3.71519e-07 -2.05623e-07 -3.53445e-08 1.32291e-07 2.95555e-07 4.62795e-07 6.33667e-07 8.07803e-07 9.84787e-07 1.1642e-06 1.34558e-06 1.52845e-06 1.71233e-06 1.89669e-06 2.08102e-06 2.26475e-06 2.44734e-06 2.62823e-06 2.80686e-06 2.98264e-06 3.15503e-06 3.32345e-06 3.48735e-06 3.64619e-06 3.79944e-06 3.9466e-06 4.08717e-06 4.22068e-06 4.3467e-06 4.46482e-06 4.57465e-06 4.66125e-06 4.54257e-06 4.40827e-06 4.2582e-06 4.0923e-06 3.91056e-06 3.71304e-06 3.49988e-06 3.27131e-06 3.02762e-06 2.76919e-06 2.49646e-06 2.20999e-06 1.89651e-06 1.55376e-06 1.20028e-06 8.36899e-07 4.64499e-07 8.40287e-08 -3.03495e-07 -6.97032e-07 -1.09546e-06 -1.49764e-06 -1.9024e-06 -2.30852e-06 -2.71475e-06 -3.11984e-06 -3.52254e-06 -3.92156e-06 -4.31562e-06 -4.70349e-06 -5.08392e-06 -5.45568e-06 -5.81758e-06 -6.1685e-06 -6.5073e-06 -6.83295e-06 -7.14444e-06 -7.44084e-06 1.19557e-05 0.000295839 0.000588368 0.000889432 0.00119887 0.0015165 0.00184208 0.00217532 0.00251591 0.00286346 0.00321757 0.00357775 0.00394346 0.00431416 0.00468923 0.00506803 0.00544977 0.00583366 0.00621887 0.00660453 0.00698972 0.00737348 0.00775482 0.00813272 0.00850611 0.00887392 
0.00916787 0.00951863 0.00986054 0.0101925 0.0105134 0.0108221 0.0111176 0.0113988 0.0116647 0.0119143 0.0121467 0.012361 0.0125563 0.0127321 0.0128874 0.0130093 0.0130489 0.0130642 0.0130551 0.0130212 0.0129623 0.0128786 0.01277 0.0126367 0.0124791 0.0122974 0.0120922 0.0118641 0.0116138 0.0113418 0.0110491 0.0107368 0.0104059 0.0100575 0.00969264 0.00931264 0.00891874 0.00851222 0.00809446 0.0076668 0.00723063 0.00678734 0.00633833 0.005885 0.00542871 0.00497082 0.00451268 0.00405558 0.00360076 0.00314945 0.00270282 0.00226196 0.00182793 0.00140172 0.000984229 0.000576325 0.000221891 -0.000114641 -0.000437987 -0.000747612 -0.00104306 -0.00132396 -0.00159 -0.00184097 -0.00207671 -0.00229717 -0.00250232 -0.00269226 -0.00261321 -0.00250844 -0.00239774 -0.00228143 -0.00215984 -0.00203332 -0.00190226 -0.00176704 -0.00162809 -0.00148584 -0.00134074 -0.00119325 -0.00104384 -0.00089298 -0.000741151 -0.000588833 -0.000436503 -0.000284639 -0.000133703 1.58457e-05 0.000163559 0.000309011 0.00045178 0.000591471 0.000727705 0.000860131 0.000988404 0.00111222 0.0012313 0.00134539 0.00145427 0.00155774 0.00165562 0.00174777 0.00183408 0.00191447 0.00198887 0.00205726 0.00211964 0.00217601 0.00222386 0.00219757 0.00216777 0.00213456 0.00209808 0.00205847 0.00201587 0.00197045 0.00192238 0.00187183 0.00181898 0.00176401 0.00170712 0.00164849 0.00158832 0.00152679 0.0014641 0.00140043 0.00133597 0.0012709 0.0012054 0.00113963 0.00107376 0.00100795 0.00094235 0.000877099 0.000812332 0.000748157 0.000684691 0.000622062 0.000560363 0.000499687 0.000440117 0.000381724 0.000324573 0.000268721 0.000214219 0.000161105 0.000109413 5.91719e-05 1.0401e-05 -1.23554e-06 -1.26694e-06 -1.29761e-06 -1.3275e-06 -1.35657e-06 -1.38476e-06 -1.41203e-06 -1.43833e-06 -1.46359e-06 -1.48776e-06 -1.51079e-06 -1.53261e-06 -1.55316e-06 -1.57237e-06 -1.59018e-06 -1.60653e-06 -1.62134e-06 -1.63456e-06 -1.64611e-06 -1.65593e-06 -1.66397e-06 -1.67016e-06 -1.67445e-06 -1.67678e-06 -1.67711e-06 -1.67539e-06 -1.62553e-06 -1.5073e-06 -1.38356e-06 -1.25435e-06 -1.11972e-06 -9.79736e-07 -8.34513e-07 -6.84168e-07 -5.28859e-07 -3.68763e-07 -2.04092e-07 -3.50695e-08 1.3133e-07 2.9339e-07 4.59398e-07 6.2901e-07 8.01863e-07 9.77542e-07 1.15563e-06 1.33567e-06 1.5172e-06 1.69972e-06 1.88273e-06 2.06569e-06 2.24807e-06 2.42932e-06 2.60887e-06 2.78618e-06 2.96067e-06 3.13178e-06 3.29896e-06 3.46165e-06 3.61932e-06 3.77145e-06 3.91752e-06 4.05705e-06 4.18958e-06 4.31468e-06 4.43192e-06 4.54094e-06 4.62691e-06 4.50909e-06 4.37577e-06 4.22681e-06 4.06213e-06 3.88172e-06 3.68565e-06 3.47406e-06 3.24717e-06 3.00528e-06 2.74875e-06 2.47802e-06 2.19365e-06 1.88248e-06 1.54225e-06 1.19137e-06 8.30666e-07 4.61006e-07 8.33353e-08 -3.01337e-07 -6.91978e-07 -1.08747e-06 -1.4867e-06 -1.88848e-06 -2.29161e-06 -2.69485e-06 -3.09696e-06 -3.49669e-06 -3.89278e-06 -4.28394e-06 -4.66895e-06 -5.04658e-06 -5.41561e-06 -5.77485e-06 -6.12318e-06 -6.45949e-06 -6.78274e-06 -7.09193e-06 -7.38615e-06 1.18693e-05 0.000293688 0.00058409 0.000882963 0.00119015 0.00150547 0.00182868 0.0021595 0.00249761 0.00284264 0.00319417 0.00355173 0.00391478 0.00428278 0.00465512 0.00503117 0.00541013 0.00579123 0.00617364 0.00655649 0.00693889 0.00731985 0.00769842 0.00807357 0.00844425 0.00880938 
0.00903973 0.00938559 0.00972272 0.01005 0.0103664 0.0106708 0.0109622 0.0112394 0.0115016 0.0117477 0.0119769 0.0121882 0.0123808 0.0125541 0.0127073 0.0128291 0.0128776 0.0129026 0.0129036 0.0128805 0.0128331 0.0127615 0.0126656 0.0125455 0.0124017 0.0122344 0.0120442 0.0118315 0.011597 0.0113413 0.0110654 0.0107702 0.0104568 0.010126 0.00977918 0.00941734 0.00904174 0.00865363 0.00825431 0.00784507 0.00742726 0.0070022 0.00657124 0.00613572 0.00569694 0.00525622 0.00481483 0.00437402 0.00393497 0.00349887 0.00306683 0.0026399 0.0022191 0.00180537 0.00139958 0.00100254 0.000651941 0.000317377 -5.11489e-06 -0.000315016 -0.000611886 -0.00089535 -0.00116511 -0.00142094 -0.00166268 -0.00189025 -0.00210363 -0.00230286 -0.0022377 -0.00214798 -0.00205318 -0.00195359 -0.00184947 -0.00174113 -0.00162889 -0.0015131 -0.00139411 -0.0012723 -0.00114805 -0.00102175 -0.000893803 -0.000764619 -0.000634604 -0.000504171 -0.000373727 -0.000243683 -0.000114433 1.36293e-05 0.00014012 0.000264674 0.00038693 0.00050655 0.00062321 0.000736609 0.000846451 0.000952475 0.00105445 0.00115215 0.00124538 0.00133398 0.0014178 0.00149671 0.00157062 0.00163946 0.00170317 0.00176173 0.00181514 0.00186342 0.00190439 0.00188188 0.00185636 0.00182792 0.00179668 0.00176276 0.00172628 0.00168738 0.00164622 0.00160293 0.00155767 0.0015106 0.00146188 0.00141168 0.00136014 0.00130746 0.00125377 0.00119925 0.00114405 0.00108833 0.00103223 0.000975912 0.000919509 0.000863155 0.000806976 0.000751099 0.000695636 0.000640678 0.000586325 0.000532689 0.000479849 0.000427885 0.000376868 0.000326859 0.000277913 0.000230079 0.000183401 0.000137912 9.36411e-05 5.06118e-05 8.84167e-06 -1.12871e-06 -1.16116e-06 -1.19302e-06 -1.22423e-06 -1.25476e-06 -1.28453e-06 -1.31351e-06 -1.34162e-06 -1.3688e-06 -1.39499e-06 -1.42013e-06 -1.44415e-06 -1.46697e-06 -1.48853e-06 -1.50874e-06 -1.52755e-06 -1.54488e-06 -1.56065e-06 -1.57479e-06 -1.58724e-06 -1.59793e-06 -1.60678e-06 -1.61375e-06 -1.61878e-06 -1.6218e-06 -1.62277e-06 -1.57623e-06 -1.46223e-06 -1.34275e-06 -1.21783e-06 -1.08751e-06 -9.51867e-07 -8.11001e-07 -6.65027e-07 -5.141e-07 -3.58393e-07 -1.98113e-07 -3.34802e-08 1.29503e-07 2.89333e-07 4.53056e-07 6.20333e-07 7.90807e-07 9.64069e-07 1.13971e-06 1.31727e-06 1.4963e-06 1.67631e-06 1.8568e-06 2.03724e-06 2.21711e-06 2.39586e-06 2.57295e-06 2.74781e-06 2.9199e-06 3.08866e-06 3.25354e-06 3.41399e-06 3.56949e-06 3.71953e-06 3.86359e-06 4.0012e-06 4.13191e-06 4.25528e-06 4.3709e-06 4.47843e-06 4.56321e-06 4.44702e-06 4.31555e-06 4.16865e-06 4.00624e-06 3.82832e-06 3.63496e-06 3.42629e-06 3.20253e-06 2.96398e-06 2.71099e-06 2.444e-06 2.16355e-06 1.85667e-06 1.52113e-06 1.17509e-06 8.19362e-07 4.548e-07 8.23366e-08 -2.97032e-07 -6.82287e-07 -1.07233e-06 -1.46605e-06 -1.86229e-06 -2.25986e-06 -2.65754e-06 -3.05411e-06 -3.44833e-06 -3.83896e-06 -4.22473e-06 -4.60443e-06 -4.97686e-06 -5.34079e-06 -5.69508e-06 -6.03861e-06 -6.37029e-06 -6.68908e-06 -6.99402e-06 -7.28418e-06 1.17021e-05 0.000289581 0.000575925 0.000870621 0.00117352 0.00148443 0.00180312 0.00212932 0.0024627 0.0028029 0.00314952 0.00350209 0.00386006 0.00422292 0.00459006 0.00496085 0.00533451 0.00571028 0.00608735 0.00646485 0.0068419 0.00721754 0.00759082 0.00796072 0.00832622 0.00868625 
0.00885833 0.00919725 0.00952761 0.00984835 0.0101584 0.0104567 0.0107422 0.0110139 0.0112708 0.011512 0.0117365 0.0119436 0.0121324 0.0123022 0.0124523 0.0125747 0.0126401 0.012683 0.012703 0.0126999 0.0126735 0.0126238 0.0125507 0.0124546 0.0123355 0.0121939 0.0120301 0.0118447 0.0116383 0.0114113 0.0111648 0.0108995 0.0106164 0.0103166 0.0100009 0.00967051 0.00932655 0.00897017 0.00860258 0.008225 0.00783865 0.00744478 0.00704463 0.00663944 0.00623043 0.00581881 0.00540576 0.00499243 0.00457993 0.00416934 0.00376169 0.00335796 0.00295908 0.00256593 0.00217931 0.00179998 0.0014543 0.0011213 0.000798374 0.000486022 0.000184663 -0.000105337 -0.000383683 -0.000650136 -0.000904521 -0.00114673 -0.0013767 -0.00159443 -0.00155464 -0.00149231 -0.00142644 -0.00135725 -0.0012849 -0.00120963 -0.00113165 -0.00105119 -0.000968524 -0.00088389 -0.000797562 -0.000709808 -0.000620912 -0.000531156 -0.000440823 -0.000350199 -0.000259568 -0.000169215 -7.94135e-05 9.56226e-06 9.7446e-05 0.000183984 0.000268926 0.000352036 0.000433089 0.000511877 0.000588194 0.000661857 0.000732706 0.000800586 0.000865364 0.00092692 0.000985153 0.00103998 0.00109133 0.00113915 0.00118342 0.0012241 0.00126121 0.00129475 0.00132322 0.00130758 0.00128984 0.00127008 0.00124838 0.00122481 0.00119946 0.00117244 0.00114383 0.00111376 0.00108231 0.0010496 0.00101575 0.000980868 0.000945062 0.000908453 0.000871151 0.000833267 0.000794913 0.000756197 0.000717222 0.000678089 0.000638899 0.000599742 0.000560708 0.000521883 0.000483346 0.000445155 0.00040738 0.000370103 0.000333379 0.000297263 0.000261805 0.000227047 0.000193027 0.000159781 0.000127337 9.57184e-05 6.49463e-05 3.50368e-05 6.00213e-06 -9.37477e-07 -9.7207e-07 -1.00634e-06 -1.04021e-06 -1.07363e-06 -1.10654e-06 -1.13886e-06 -1.17052e-06 -1.20144e-06 -1.23155e-06 -1.26077e-06 -1.28902e-06 -1.31621e-06 -1.34225e-06 -1.36707e-06 -1.39057e-06 -1.41267e-06 -1.43329e-06 -1.45234e-06 -1.46974e-06 -1.48541e-06 -1.49927e-06 -1.51126e-06 -1.52131e-06 -1.52935e-06 -1.53534e-06 -1.49467e-06 -1.38779e-06 -1.27547e-06 -1.15772e-06 -1.0346e-06 -9.06149e-07 -7.72482e-07 -6.33703e-07 -4.89958e-07 -3.41415e-07 -1.88274e-07 -3.07511e-08 1.26921e-07 2.83621e-07 4.44137e-07 6.08139e-07 7.75275e-07 9.45143e-07 1.11734e-06 1.29143e-06 1.46695e-06 1.64344e-06 1.82039e-06 1.9973e-06 2.17365e-06 2.3489e-06 2.52252e-06 2.69396e-06 2.86268e-06 3.02814e-06 3.18979e-06 3.3471e-06 3.49955e-06 3.64665e-06 3.78789e-06 3.92281e-06 4.05095e-06 4.17191e-06 4.28528e-06 4.3907e-06 4.47382e-06 4.35992e-06 4.23104e-06 4.08703e-06 3.92782e-06 3.75341e-06 3.56386e-06 3.35929e-06 3.13994e-06 2.90607e-06 2.65806e-06 2.39632e-06 2.12139e-06 1.82054e-06 1.49159e-06 1.15235e-06 8.03608e-07 4.46206e-07 8.10596e-08 -2.90858e-07 -6.68545e-07 -1.05093e-06 -1.43692e-06 -1.82537e-06 -2.21514e-06 -2.60501e-06 -2.99379e-06 -3.38027e-06 -3.76323e-06 -4.14143e-06 -4.51368e-06 -4.87879e-06 -5.23558e-06 -5.58291e-06 -5.9197e-06 -6.24487e-06 -6.5574e-06 -6.85635e-06 -7.14082e-06 1.14643e-05 0.000283767 0.000564364 0.000853146 0.00114996 0.00145464 0.00176693 0.00208658 0.00241328 0.00274665 0.00308631 0.00343181 0.0037826 0.00413817 0.00449794 0.00486129 0.00522746 0.00559569 0.00596519 0.00633511 0.0067046 0.0070727 0.00743849 0.00780097 0.00815913 0.00851193 
0.00867232 0.00900413 0.00932756 0.00964156 0.0099451 0.0102371 0.0105166 0.0107826 0.0110342 0.0112703 0.0114901 0.0116928 0.0118776 0.0120439 0.0121908 0.0123137 0.012396 0.0124567 0.0124956 0.0125123 0.0125068 0.012479 0.0124288 0.0123565 0.0122622 0.0121462 0.0120088 0.0118507 0.0116723 0.0114741 0.0112569 0.0110216 0.010769 0.0105 0.0102156 0.00991677 0.00960452 0.00927996 0.0089442 0.00859837 0.00824358 0.007881 0.00751178 0.00713705 0.00675792 0.00637553 0.00599095 0.00560524 0.00521942 0.00483448 0.00445137 0.00407098 0.00369417 0.00332175 0.00295446 0.00259299 0.00225241 0.00192117 0.00159801 0.0012834 0.000977748 0.000681409 0.000394678 0.000117803 -0.000149024 -0.000405663 -0.000652019 -0.000888047 -0.000873566 -0.000838538 -0.00080153 -0.000762647 -0.000721998 -0.000679701 -0.000635883 -0.000590678 -0.000544225 -0.00049667 -0.000448162 -0.000398853 -0.000348902 -0.000298469 -0.000247711 -0.000196789 -0.000145864 -9.50941e-05 -4.46348e-05 5.36073e-06 5.47426e-05 0.000103369 0.000151097 0.000197797 0.000243341 0.000287612 0.000330494 0.000371886 0.000411696 0.000449838 0.000486237 0.000520825 0.000553546 0.000584353 0.000613207 0.00064008 0.000664953 0.000687815 0.000708666 0.000727513 0.000743507 0.000734719 0.000724754 0.000713651 0.000701455 0.000688211 0.00067397 0.000658785 0.000642713 0.000625812 0.000608143 0.000589766 0.000570745 0.000551144 0.000531025 0.000510455 0.000489495 0.000468208 0.000446658 0.000424903 0.000403004 0.000381015 0.000358995 0.000336993 0.00031506 0.000293244 0.000271591 0.000250124 0.000228886 0.000207926 0.000187278 0.00016697 0.000147032 0.000127487 0.000108356 8.96594e-05 7.14134e-05 5.36311e-05 3.63241e-05 1.95014e-05 3.17008e-06 -7.4635e-07 -7.83058e-07 -8.19701e-07 -8.56204e-07 -8.92497e-07 -9.285e-07 -9.64133e-07 -9.9931e-07 -1.03394e-06 -1.06794e-06 -1.10121e-06 -1.13365e-06 -1.16518e-06 -1.19568e-06 -1.22506e-06 -1.25323e-06 -1.28007e-06 -1.30551e-06 -1.32943e-06 -1.35175e-06 -1.37238e-06 -1.39122e-06 -1.40821e-06 -1.42326e-06 -1.4363e-06 -1.44727e-06 -1.41248e-06 -1.31277e-06 -1.20764e-06 -1.09712e-06 -9.81232e-07 -8.60036e-07 -7.33625e-07 -6.02099e-07 -4.65599e-07 -3.24286e-07 -1.78353e-07 -2.80101e-08 1.24273e-07 2.77758e-07 4.34981e-07 5.95619e-07 7.59325e-07 9.25709e-07 1.09437e-06 1.26489e-06 1.43682e-06 1.60968e-06 1.783e-06 1.95628e-06 2.12901e-06 2.30067e-06 2.47073e-06 2.63865e-06 2.80391e-06 2.96597e-06 3.12431e-06 3.27839e-06 3.42772e-06 3.5718e-06 3.71014e-06 3.84229e-06 3.96781e-06 4.08629e-06 4.19733e-06 4.30059e-06 4.38201e-06 4.27046e-06 4.14425e-06 4.00321e-06 3.84728e-06 3.67647e-06 3.49082e-06 3.29047e-06 3.07564e-06 2.84659e-06 2.60368e-06 2.34733e-06 2.07806e-06 1.78341e-06 1.46123e-06 1.12897e-06 7.87404e-07 4.37357e-07 7.97225e-08 -2.84543e-07 -6.54461e-07 -1.02898e-06 -1.40703e-06 -1.78749e-06 -2.16924e-06 -2.55109e-06 -2.93188e-06 -3.31041e-06 -3.68549e-06 -4.05591e-06 -4.42051e-06 -4.77811e-06 -5.12757e-06 -5.46776e-06 -5.79762e-06 -6.1161e-06 -6.42221e-06 -6.71502e-06 -6.99364e-06 1.12207e-05 0.000277806 0.000552511 0.00083523 0.00112582 0.00142409 0.00172983 0.00204277 0.0023626 0.00268898 0.00302151 0.00335974 0.00370317 0.00405128 0.0044035 0.00475922 0.00511769 0.00547819 0.00583993 0.00620209 0.00656382 0.00692419 0.0072823 0.00763717 0.00798781 0.00833321 
0.0084817 0.00880622 0.00912253 0.00942964 0.0097265 0.0100121 0.0102855 0.0105456 0.0107916 0.0110226 0.0112376 0.0114358 0.0116166 0.0117791 0.0119228 0.0120462 0.0121451 0.0122236 0.0122812 0.0123177 0.012333 0.012327 0.0122996 0.012251 0.0121813 0.0120909 0.01198 0.0118491 0.0116987 0.0115292 0.0113414 0.0111361 0.010914 0.0106759 0.0104228 0.0101555 0.00987498 0.00958229 0.00927841 0.00896438 0.00864124 0.00831003 0.00797181 0.00762762 0.00727848 0.00692542 0.00656941 0.00621144 0.0058524 0.00549324 0.00513478 0.00477786 0.00442326 0.00407171 0.00372388 0.00338041 0.00304513 0.00271584 0.00239265 0.00207599 0.00176626 0.0014638 0.0011689 0.000881829 0.000602788 0.000331947 6.94383e-05 -0.000184648 -0.000195357 -0.000187532 -0.000179264 -0.000170577 -0.000161494 -0.000152044 -0.000142254 -0.000132153 -0.000121774 -0.000111148 -0.000100309 -8.92905e-05 -7.81287e-05 -6.6859e-05 -5.55166e-05 -4.41375e-05 -3.27574e-05 -2.1412e-05 -1.01357e-05 1.037e-06 1.20728e-05 2.29397e-05 3.36063e-05 4.40432e-05 5.42219e-05 6.41163e-05 7.37005e-05 8.29519e-05 9.18499e-05 0.000100375 0.000108512 0.000116243 0.000123558 0.000130445 0.000136895 0.000142903 0.000148465 0.000153577 0.00015824 0.000162455 0.000166033 0.00016407 0.000161845 0.000159366 0.000156642 0.000153685 0.000150505 0.000147114 0.000143525 0.000139751 0.000135806 0.000131702 0.000127455 0.000123078 0.000118585 0.000113992 0.000109311 0.000104558 9.97454e-05 9.48876e-05 8.99973e-05 8.50871e-05 8.01697e-05 7.52566e-05 7.03588e-05 6.54873e-05 6.06519e-05 5.58457e-05 5.10798e-05 4.63756e-05 4.174e-05 3.71801e-05 3.27018e-05 2.83107e-05 2.40116e-05 1.98089e-05 1.57062e-05 1.17065e-05 7.8125e-06 4.02625e-06 3.49325e-07 -5.55572e-07 -5.94362e-07 -6.33347e-07 -6.72444e-07 -7.1157e-07 -7.50634e-07 -7.89543e-07 -8.282e-07 -8.66501e-07 -9.04345e-07 -9.41623e-07 -9.78227e-07 -1.01404e-06 -1.04896e-06 -1.08287e-06 -1.11566e-06 -1.14722e-06 -1.17743e-06 -1.20619e-06 -1.2334e-06 -1.25895e-06 -1.28274e-06 -1.30469e-06 -1.32471e-06 -1.34272e-06 -1.35864e-06 -1.32973e-06 -1.23722e-06 -1.13933e-06 -1.03607e-06 -9.27462e-07 -8.13565e-07 -6.9446e-07 -5.7024e-07 -4.41041e-07 -3.07018e-07 -1.68357e-07 -2.526e-08 1.21559e-07 2.71743e-07 4.25586e-07 5.8277e-07 7.42957e-07 9.05763e-07 1.0708e-06 1.23765e-06 1.40588e-06 1.57503e-06 1.74462e-06 1.91418e-06 2.0832e-06 2.25116e-06 2.41757e-06 2.58188e-06 2.74359e-06 2.90216e-06 3.05709e-06 3.20786e-06 3.35399e-06 3.49497e-06 3.63034e-06 3.75965e-06 3.88247e-06 3.9984e-06 4.10705e-06 4.20809e-06 4.28776e-06 4.17863e-06 4.05514e-06 3.91716e-06 3.7646e-06 3.59747e-06 3.41584e-06 3.21982e-06 3.00962e-06 2.78552e-06 2.54785e-06 2.29704e-06 2.03358e-06 1.74528e-06 1.43005e-06 1.10495e-06 7.70748e-07 4.28248e-07 7.83243e-08 -2.78088e-07 -6.40031e-07 -1.00647e-06 -1.37637e-06 -1.74864e-06 -2.12216e-06 -2.49578e-06 -2.86836e-06 -3.23873e-06 -3.60573e-06 -3.96816e-06 -4.3249e-06 -4.6748e-06 -5.01673e-06 -5.34959e-06 -5.67234e-06 -5.98396e-06 -6.28348e-06 -6.56998e-06 -6.8426e-06 1.09713e-05 0.000271697 0.000540364 0.000816868 0.00110107 0.00139278 0.0016918 0.00199786 0.00231067 0.00262987 0.00295509 0.00328589 0.00362177 0.00396223 0.0043067 0.00465461 0.0050052 0.00535778 0.00571157 0.00606577 0.00641954 0.006772 0.00712223 0.0074693 0.00781224 0.00815004 
0.00828644 0.00860348 0.00891252 0.00921255 0.00950258 0.00978163 0.0100487 0.0103029 0.0105432 0.0107688 0.0109789 0.0111725 0.0113491 0.011508 0.0116484 0.0117721 0.0118875 0.0119835 0.0120597 0.0121159 0.0121519 0.0121675 0.0121628 0.0121378 0.0120928 0.0120278 0.0119433 0.0118396 0.0117171 0.0115763 0.0114178 0.0112424 0.0110508 0.0108436 0.0106217 0.010386 0.0101373 0.00987645 0.00960448 0.00932229 0.00903083 0.00873104 0.00842388 0.00811029 0.0077912 0.00746753 0.00714018 0.00681002 0.00647787 0.00614457 0.00581088 0.00547754 0.00514525 0.00481469 0.00448645 0.00416111 0.00383132 0.00350419 0.00318118 0.0028627 0.00254911 0.00224076 0.00193795 0.00164092 0.00134992 0.00106514 0.000786736 0.00051486 0.000479106 0.000459873 0.000439553 0.000418205 0.000395887 0.000372665 0.000348609 0.000323792 0.00029829 0.000272183 0.000245554 0.000218485 0.000191065 0.00016338 0.000135517 0.000107565 7.96114e-05 5.17436e-05 2.40464e-05 -3.39566e-06 -3.05005e-05 -5.719e-05 -8.33865e-05 -0.000109018 -0.000134014 -0.000158312 -0.000181846 -0.000204562 -0.000226409 -0.00024734 -0.000267314 -0.000286293 -0.000304248 -0.00032115 -0.000336981 -0.000351724 -0.000365368 -0.000377909 -0.000389345 -0.00039968 -0.00040845 -0.000403622 -0.000398147 -0.000392048 -0.000385347 -0.000378071 -0.000370248 -0.000361906 -0.000353076 -0.000343791 -0.000334085 -0.000323989 -0.000313539 -0.000302771 -0.000291718 -0.000280418 -0.000268903 -0.000257209 -0.00024537 -0.000233419 -0.000221388 -0.000209308 -0.00019721 -0.000185123 -0.000173074 -0.00016109 -0.000149194 -0.000137426 -0.000125805 -0.000114338 -0.000103043 -9.19376e-05 -8.10358e-05 -7.03513e-05 -5.98957e-05 -4.96796e-05 -3.97122e-05 -3.00006e-05 -2.0551e-05 -1.13684e-05 -2.45644e-06 -3.65378e-07 -4.06212e-07 -4.47503e-07 -4.89153e-07 -5.31071e-07 -5.73154e-07 -6.15296e-07 -6.57388e-07 -6.99314e-07 -7.40959e-07 -7.82199e-07 -8.22916e-07 -8.62982e-07 -9.02274e-07 -9.40664e-07 -9.78031e-07 -1.01425e-06 -1.04919e-06 -1.08275e-06 -1.1148e-06 -1.14523e-06 -1.17393e-06 -1.2008e-06 -1.22576e-06 -1.24869e-06 -1.26954e-06 -1.24649e-06 -1.1612e-06 -1.07057e-06 -9.74611e-07 -8.73328e-07 -7.6677e-07 -6.55015e-07 -5.3815e-07 -4.16304e-07 -2.89625e-07 -1.58293e-07 -2.25036e-08 1.18778e-07 2.65577e-07 4.15951e-07 5.6959e-07 7.26166e-07 8.85302e-07 1.04662e-06 1.20971e-06 1.37414e-06 1.53948e-06 1.70525e-06 1.87098e-06 2.03619e-06 2.20037e-06 2.36302e-06 2.52363e-06 2.68169e-06 2.8367e-06 2.98813e-06 3.1355e-06 3.27833e-06 3.41614e-06 3.54845e-06 3.67485e-06 3.7949e-06 3.90822e-06 4.01442e-06 4.11318e-06 4.19106e-06 4.08441e-06 3.96372e-06 3.82886e-06 3.67976e-06 3.51642e-06 3.33889e-06 3.14731e-06 2.94187e-06 2.72284e-06 2.49055e-06 2.24541e-06 1.98791e-06 1.70613e-06 1.39803e-06 1.08028e-06 7.53636e-07 4.18878e-07 7.68639e-08 -2.71493e-07 -6.25255e-07 -9.83414e-07 -1.34495e-06 -1.70881e-06 -2.07388e-06 -2.43907e-06 -2.80322e-06 -3.16523e-06 -3.52393e-06 -3.87818e-06 -4.22686e-06 -4.56885e-06 -4.90305e-06 -5.22839e-06 -5.54386e-06 -5.84844e-06 -6.14119e-06 -6.42121e-06 -6.68768e-06 1.0716e-05 0.000265439 0.000527921 0.00079806 0.00107572 0.00136072 0.00165285 0.00195187 0.00225747 0.00256933 0.00288706 0.00321024 0.00353839 0.00387101 0.00420756 0.00454745 0.00488997 0.00523443 0.00558008 0.00592612 0.00627175 0.00661609 0.00695827 0.00729735 0.00763239 0.00796241 
0.00808648 0.00839587 0.00869745 0.00899024 0.00927328 0.00954559 0.00980622 0.0100542 0.0102888 0.0105089 0.0107139 0.0109029 0.0110753 0.0112303 0.0113673 0.0114913 0.011623 0.0117364 0.0118311 0.0119067 0.0119632 0.0120003 0.0120182 0.0120167 0.0119961 0.0119565 0.0118983 0.0118216 0.0117271 0.0116148 0.0114856 0.0113401 0.0111788 0.0110025 0.0108119 0.0106077 0.0103907 0.0101618 0.00992169 0.00967135 0.00941158 0.00914322 0.00886715 0.0085842 0.0082952 0.00800098 0.00770234 0.00740005 0.00709486 0.0067875 0.00647866 0.00616899 0.00585912 0.00554965 0.00524111 0.00493403 0.00460992 0.00428517 0.00396256 0.00364249 0.0033253 0.00301131 0.00270083 0.00239413 0.00209144 0.001793 0.001499 0.00120963 0.00114901 0.0011029 0.00105418 0.00100299 0.000949477 0.000893797 0.000836116 0.00077661 0.000715463 0.000652865 0.000589013 0.000524109 0.00045836 0.000391977 0.000325167 0.000258143 0.000191115 0.000124292 5.78788e-05 -7.92328e-06 -7.29169e-05 -0.000136915 -0.000199731 -0.000261192 -0.00032113 -0.000379393 -0.000435827 -0.000490298 -0.000542686 -0.000592878 -0.000640775 -0.000686288 -0.000729343 -0.000769876 -0.00080784 -0.000843194 -0.000875916 -0.000905989 -0.000933416 -0.000958204 -0.000979236 -0.000967662 -0.000954537 -0.000939914 -0.00092385 -0.000906407 -0.000887651 -0.000867651 -0.000846483 -0.000824224 -0.000800952 -0.000776748 -0.000751696 -0.00072588 -0.000699382 -0.00067229 -0.000644684 -0.000616648 -0.000588264 -0.000559612 -0.000530769 -0.000501809 -0.000472806 -0.000443828 -0.000414941 -0.000386209 -0.00035769 -0.000329455 -0.000301552 -0.000274018 -0.000246895 -0.000220224 -0.000194042 -0.000168378 -0.000143263 -0.000118721 -9.47738e-05 -7.14391e-05 -4.87317e-05 -2.66636e-05 -5.24377e-06 -1.75987e-07 -2.18826e-07 -2.62378e-07 -3.06537e-07 -3.51202e-07 -3.96256e-07 -4.41583e-07 -4.8706e-07 -5.3256e-07 -5.77954e-07 -6.23105e-07 -6.67882e-07 -7.12144e-07 -7.55754e-07 -7.98573e-07 -8.40465e-07 -8.81292e-07 -9.2092e-07 -9.59217e-07 -9.96057e-07 -1.03132e-06 -1.06488e-06 -1.09663e-06 -1.12647e-06 -1.15429e-06 -1.18001e-06 -1.16281e-06 -1.08477e-06 -1.00143e-06 -9.12794e-07 -8.18864e-07 -7.1968e-07 -6.15315e-07 -5.05848e-07 -3.91402e-07 -2.72118e-07 -1.48168e-07 -1.97434e-08 1.15931e-07 2.59256e-07 4.06072e-07 5.56077e-07 7.08947e-07 8.64319e-07 1.02182e-06 1.18105e-06 1.3416e-06 1.50302e-06 1.66487e-06 1.82668e-06 1.98798e-06 2.14828e-06 2.30708e-06 2.46389e-06 2.61821e-06 2.76955e-06 2.9174e-06 3.06129e-06 3.20074e-06 3.33528e-06 3.46447e-06 3.58787e-06 3.70509e-06 3.81572e-06 3.91941e-06 4.01584e-06 4.09188e-06 3.98776e-06 3.86994e-06 3.73829e-06 3.59273e-06 3.43328e-06 3.25997e-06 3.07294e-06 2.87237e-06 2.65854e-06 2.43177e-06 2.19245e-06 1.94106e-06 1.66597e-06 1.36517e-06 1.05496e-06 7.36061e-07 4.09243e-07 7.53401e-08 -2.64755e-07 -6.10128e-07 -9.59794e-07 -1.31276e-06 -1.66799e-06 -2.02441e-06 -2.38093e-06 -2.73645e-06 -3.08988e-06 -3.44007e-06 -3.78592e-06 -4.12633e-06 -4.46022e-06 -4.7865e-06 -5.10413e-06 -5.41212e-06 -5.70948e-06 -5.99529e-06 -6.26868e-06 -6.52883e-06 1.04548e-05 0.000259031 0.000515179 0.000778799 0.00104976 0.00132788 0.00161296 0.00190476 0.00220299 0.00250732 0.00281739 0.00313278 0.003453 0.0037776 0.00410602 0.00443771 0.00477197 0.00510812 0.00544542 0.00578312 0.00612041 0.00645644 0.00679036 0.00712126 0.00744821 0.00777027 
0.00788182 0.00818338 0.00847733 0.00876271 0.00903859 0.009304 0.00955804 0.00979978 0.0100284 0.010243 0.0104428 0.010627 0.010795 0.010946 0.0110796 0.0112037 0.0113516 0.0114822 0.0115951 0.01169 0.0117668 0.0118253 0.0118655 0.0118874 0.0118911 0.0118768 0.0118446 0.011795 0.0117282 0.0116444 0.0115444 0.0114286 0.0112977 0.0111521 0.0109926 0.0108199 0.0106347 0.0104376 0.0102294 0.0100108 0.00978274 0.0095458 0.00930081 0.00904851 0.00878961 0.00852487 0.00825496 0.0079806 0.00770241 0.00742105 0.00713712 0.00685119 0.00656382 0.00627553 0.00598679 0.00569806 0.00537985 0.00505769 0.00473573 0.00441431 0.00409377 0.00377442 0.00345656 0.00314046 0.00282639 0.0025146 0.00220533 0.0018988 0.00181352 0.00174073 0.00166383 0.00158304 0.00149858 0.0014107 0.00131966 0.00122574 0.00112922 0.00103042 0.000929643 0.000827202 0.000723427 0.000618651 0.000513202 0.000407415 0.000301621 0.000196151 9.13278e-05 -1.25307e-05 -0.000115113 -0.000216124 -0.000315269 -0.000412276 -0.00050688 -0.000598838 -0.00068791 -0.000773884 -0.000856571 -0.000935791 -0.00101139 -0.00108322 -0.00115118 -0.00121515 -0.00127507 -0.00133087 -0.00138252 -0.00142999 -0.00147328 -0.0015124 -0.00154559 -0.00152733 -0.00150661 -0.00148353 -0.00145818 -0.00143064 -0.00140104 -0.00136947 -0.00133606 -0.00130093 -0.0012642 -0.001226 -0.00118645 -0.00114571 -0.00110388 -0.00106112 -0.00101755 -0.000973299 -0.000928499 -0.000883276 -0.000837751 -0.00079204 -0.000746264 -0.000700526 -0.000654932 -0.000609582 -0.000564568 -0.000519993 -0.000475935 -0.000432459 -0.000389631 -0.000347516 -0.000306171 -0.000265645 -0.000225983 -0.000187226 -0.000149408 -0.000112556 -7.66935e-05 -4.18398e-05 -8.00906e-06 1.23674e-08 -3.24302e-08 -7.81964e-08 -1.24816e-07 -1.72176e-07 -2.20148e-07 -2.68605e-07 -3.17413e-07 -3.6643e-07 -4.15515e-07 -4.64519e-07 -5.13297e-07 -5.61695e-07 -6.09564e-07 -6.56751e-07 -7.03109e-07 -7.48486e-07 -7.92737e-07 -8.35718e-07 -8.77292e-07 -9.17326e-07 -9.55689e-07 -9.92264e-07 -1.02693e-06 -1.05959e-06 -1.09014e-06 -1.07877e-06 -1.00799e-06 -9.31957e-07 -8.50664e-07 -7.64113e-07 -6.72333e-07 -5.75391e-07 -4.73359e-07 -3.66354e-07 -2.54509e-07 -1.37991e-07 -1.69823e-08 1.13016e-07 2.5278e-07 3.9595e-07 5.42228e-07 6.91301e-07 8.42812e-07 9.96401e-07 1.15168e-06 1.30823e-06 1.46565e-06 1.62348e-06 1.78127e-06 1.93856e-06 2.09488e-06 2.24974e-06 2.40265e-06 2.55314e-06 2.70072e-06 2.8449e-06 2.98521e-06 3.1212e-06 3.2524e-06 3.37838e-06 3.49872e-06 3.61302e-06 3.72091e-06 3.82202e-06 3.91606e-06 3.9902e-06 3.88869e-06 3.77381e-06 3.64545e-06 3.50352e-06 3.34804e-06 3.17905e-06 2.99669e-06 2.80112e-06 2.59262e-06 2.3715e-06 2.13814e-06 1.89301e-06 1.62477e-06 1.33147e-06 1.02898e-06 7.18023e-07 3.99342e-07 7.37524e-08 -2.57876e-07 -5.9465e-07 -9.35611e-07 -1.27979e-06 -1.62617e-06 -1.97372e-06 -2.32137e-06 -2.66805e-06 -3.01267e-06 -3.35415e-06 -3.69139e-06 -4.02333e-06 -4.34891e-06 -4.66707e-06 -4.97679e-06 -5.27712e-06 -5.56708e-06 -5.84578e-06 -6.11237e-06 -6.36604e-06 1.01877e-05 0.000252473 0.000502138 0.000759086 0.00102318 0.00129427 0.00157214 0.00185655 0.00214724 0.00244386 0.00274608 0.00305349 0.00336561 0.00368199 0.0040021 0.0043254 0.0046512 0.00497884 0.00530761 0.00563675 0.00596551 0.00629304 0.0066185 0.00694103 0.00725971 0.00757362 
